{"learner":{"attributes":{"scikit_learn":"{\"_estimator_type\": \"regressor\"}"},"feature_names":["Feed Flow to DB","Reboiler o/l Temp","Column top Temp","Reboiling steam flow","Reflux flow","Column Top pressure","Column bottom temp","Control tay temp","Reflux_Ratio","Temp_Diff_Bottom_Top","Steam_to_Feed_Ratio"],"feature_types":["float","float","float","float","float","float","float","float","float","float","float"],"gradient_booster":{"model":{"cats":{"enc":[],"feature_segments":[],"sorted_idx":[]},"gbtree_model_param":{"num_parallel_tree":"1","num_trees":"200"},"iteration_indptr":[0,1,2,3,4,5,6,7,8,9,10,11,12,13,14,15,16,17,18,19,20,21,22,23,24,25,26,27,28,29,30,31,32,33,34,35,36,37,38,39,40,41,42,43,44,45,46,47,48,49,50,51,52,53,54,55,56,57,58,59,60,61,62,63,64,65,66,67,68,69,70,71,72,73,74,75,76,77,78,79,80,81,82,83,84,85,86,87,88,89,90,91,92,93,94,95,96,97,98,99,100,101,102,103,104,105,106,107,108,109,110,111,112,113,114,115,116,117,118,119,120,121,122,123,124,125,126,127,128,129,130,131,132,133,134,135,136,137,138,139,140,141,142,143,144,145,146,147,148,149,150,151,152,153,154,155,156,157,158,159,160,161,162,163,164,165,166,167,168,169,170,171,172,173,174,175,176,177,178,179,180,181,182,183,184,185,186,187,188,189,190,191,192,193,194,195,196,197,198,199,200],"tree_info":[0,0,0,0,0,0,0,0,0,0,0,0,0,0,0,0,0,0,0,0,0,0,0,0,0,0,0,0,0,0,0,0,0,0,0,0,0,0,0,0,0,0,0,0,0,0,0,0,0,0,0,0,0,0,0,0,0,0,0,0,0,0,0,0,0,0,0,0,0,0,0,0,0,0,0,0,0,0,0,0,0,0,0,0,0,0,0,0,0,0,0,0,0,0,0,0,0,0,0,0,0,0,0,0,0,0,0,0,0,0,0,0,0,0,0,0,0,0,0,0,0,0,0,0,0,0,0,0,0,0,0,0,0,0,0,0,0,0,0,0,0,0,0,0,0,0,0,0,0,0,0,0,0,0,0,0,0,0,0,0,0,0,0,0,0,0,0,0,0,0,0,0,0,0,0,0,0,0,0,0,0,0,0,0,0,0,0,0,0,0,0,0,0,0,0,0,0,0,0,0],"trees":[{"base_weights":[7.12626E-9,3.728568E-1,-5.716359E-2,6.4656395E-1,1.8929392E-1,1.5011545E-1,-8.672918E-2,-2.2595314E-2,6.9418806E-1,4.161714E-1,-9.4743386E-2,3.1397787E-1,-1.8187638E-1,-1.1787095E-1,1.445427E-1,-2.3186414E-1,2.1608236E-1,4.7696608E-1,7.352967E-1,1.0722714E-1,4.864945E-1,-1.6969875E-1,1.6458453E-1,2.10599E-1,6.697831E-1,-7.485066E-2,-2.8293377E-1,-1.8050174E-1,-6.586957E-2,3.136298E-1,3.8303144E-3,-1.6121924E-2,-2.7694303E-1,3.405856E-2,9.2132464E-2,2.417813E-2,8.422775E-3,3.722829E-2,2.1780042E-2,4.7361216E-1,3.939989E-2,3.89405E-1,6.6342354E-1,6.409587E-2,-2.017878E-1,2.3613352E-1,-4.728116E-2,-1.4222662E-1,2.9057562E-1,7.5456524E-1,3.2509986E-1,-9.670774E-2,8.959291E-2,-8.164924E-2,-2.9616114E-1,-1.4752692E-1,-3.9221972E-1,1.5189538E-2,-1.8552804E-1,9.863094E-2,7.300375E-1,-1.15982756E-1,5.2466393E-2,1.1964784E-3,-3.7448943E-2,-6.9216713E-3,-1.5106677E-2,-6.739904E-3,8.684571E-3,3.6880184E-2,-1.7277381E-1,-1.3652845E-1,1.4214224E-1,4.5088884E-1,2.0574157E-1,6.8651134E-1,-1.02714695E-1,-1.7897049E-1,2.7277294E-1,-2.3189068E-1,-8.5684255E-2,-5.7676616E-3,2.5283405E-1,-1.4982423E-1,3.1593904E-2,5.1586334E-2,-1.9915192E-1,1.7598356E-1,3.849738E-1,1.0098364E0,6.3689196E-1,9.265533E-2,5.358711E-1,1.3886943E-1,-1.1302618E-1,-1.6350156E-2,2.584106E-1,-9.737139E-2,-7.2663627E-3,-3.578001E-1,-2.623196E-1,-5.5077724E-2,-1.8228988E-1,2.5240657E-1,-4.0049726E-1,-1.7038176E-2,1.5827383E-1,9.6376784E-2,-2.0054603E-1,-2.0852152E-1,2.8012392E-1,1.1472571E0,1.3967378E-1,-2.2723296E-1,-2.8311927E-3,1.2410701E-1,4.812507E-3,-3.9912164E-4,-2.4095492E-3,-1.1486745E-2,-4.7263504E-5,-3.721979E-3,-1.2182007E-2,3.1653175E-3,1.5712373E-2,1.691482E-2,2.6699333E-2,2.1911835E-2,7.675491E-3,3.166824E-2,4.5262348E-2,4.0508555E-3,-9.548216E-3,-1.14631155E-4,-1.3843506E-2,1.604218E-2,-2.1240592E-3,1.0866414E-2,-1.2083592E-2,-6.46073E-3,8.1432E-3,1.3649009E-2,3.147846E-3,-8.602118E-3,1.4256538E-4,-2.8609133E-3,4.525888E-3,-1.0599117E-2,8.557298E-3,1.5859328E-2,-1.0964957E-2,1.4233421E-2,2.6860263E-3,2.095274E-3,2.0917863E-2,1.816108E-2,5.5616558E-2,2.4167465E-2,3.8902055E-2,1.8994492E-2,-4.4475445E-3,2.3860396E-3,2.8366515E-2,1.4638848E-2,-2.1405977E-3,-1.26992045E-2,-4.7827917E-3,-1.4993757E-3,-1.16262694E-4,1.3778964E-2,3.8849637E-3,-1.325395E-3,-5.145792E-3,9.728387E-4,-1.5178159E-3,-1.8114675E-2,-3.5529367E-3,-1.3999966E-2,-8.409384E-3,7.548825E-3,-4.788827E-3,-1.0961039E-2,-7.8012184E-3,1.9372543E-2,1.6613379E-3,-2.0231718E-2,1.0093617E-2,-6.680447E-3,5.5683573E-4,5.3016823E-3,1.5333289E-2,8.495257E-3,1.3250805E-3,-1.2683186E-2,-6.6897455E-3,-1.5514478E-2,-9.472918E-3,2.6196932E-2,8.948338E-3,7.4838693E-3,6.287365E-2,-9.915381E-3,8.273318E-3,-1.2477625E-2,9.477392E-4,-1.3810608E-2,1.0599633E-3,4.43587E-3,9.343783E-3,-3.7675214E-3,2.1286893E-3],"categories":[],"categories_nodes":[],"categories_segments":[],"categories_sizes":[],"default_left":[0,0,0,0,0,0,0,0,0,0,0,0,0,0,0,0,0,0,0,0,0,0,0,0,0,0,0,0,0,0,0,0,0,0,0,0,0,0,0,0,0,0,0,0,0,0,0,0,0,0,0,0,0,0,0,0,0,0,0,0,0,0,0,0,0,0,0,0,0,0,0,0,0,0,0,0,0,0,0,0,0,0,0,0,0,0,0,0,0,0,0,0,0,0,0,0,0,0,0,0,0,0,0,0,0,0,0,0,0,0,0,0,0,0,0,0,0,0,0,0,0,0,0,0,0,0,0,0,0,0,0,0,0,0,0,0,0,0,0,0,0,0,0,0,0,0,0,0,0,0,0,0,0,0,0,0,0,0,0,0,0,0,0,0,0,0,0,0,0,0,0,0,0,0,0,0,0,0,0,0,0,0,0,0,0,0,0,0,0,0,0,0,0,0,0,0,0,0,0,0,0,0,0,0,0,0,0,0,0,0,0],"id":0,"left_children":[1,3,5,7,9,11,13,15,17,19,21,23,25,27,29,31,33,35,37,39,41,43,45,47,49,51,53,55,57,59,61,63,65,-1,67,-1,-1,-1,-1,69,71,73,75,77,79,81,83,85,87,89,91,93,95,97,99,101,103,105,107,109,111,113,115,-1,117,-1,-1,-1,-1,-1,119,121,123,125,127,129,131,133,135,137,139,-1,141,143,145,147,149,151,153,155,157,159,161,163,165,167,169,171,173,175,177,179,181,183,185,187,189,191,193,195,197,199,201,203,205,207,209,-1,-1,-1,-1,-1,-1,-1,-1,-1,-1,-1,-1,-1,-1,-1,-1,-1,-1,-1,-1,-1,-1,-1,-1,-1,-1,-1,-1,-1,-1,-1,-1,-1,-1,-1,-1,-1,-1,-1,-1,-1,-1,-1,-1,-1,-1,-1,-1,-1,-1,-1,-1,-1,-1,-1,-1,-1,-1,-1,-1,-1,-1,-1,-1,-1,-1,-1,-1,-1,-1,-1,-1,-1,-1,-1,-1,-1,-1,-1,-1,-1,-1,-1,-1,-1,-1,-1,-1,-1,-1,-1,-1,-1,-1],"loss_changes":[1.806987E2,5.6500885E1,4.5062347E1,1.4420074E1,4.3601997E1,4.9997215E1,4.6356094E1,1.5984836E0,3.4176025E0,8.116783E0,5.8787737E0,2.2480331E1,3.2668076E0,1.8457916E1,1.8176384E1,1.6086721E-1,8.019578E-1,6.0997963E-2,6.5626526E-1,1.745753E0,4.9981155E0,1.7684598E0,1.0419613E0,1.3529432E1,3.7874603E0,5.442083E-1,3.9116287E-1,1.7898209E1,3.0070988E1,3.0993927E1,2.4418707E0,4.3128524E-3,7.0225E-3,0E0,2.6402014E-1,0E0,0E0,0E0,0E0,2.0044827E0,1.1219991E0,2.165699E0,1.9631767E0,1.519767E0,7.001114E-1,3.2853627E-1,1.5031919E-1,9.921979E-1,4.1509895E0,2.6610832E0,1.3711343E0,5.2313745E-1,3.261562E-1,1.2156516E-2,2.106924E-1,7.14711E0,1.9473076E0,8.528953E0,5.319847E0,1.2879994E1,2.89045E1,1.5225211E0,1.0167611E0,0E0,5.6491E-4,0E0,0E0,0E0,0E0,0E0,3.893301E-2,1.3482374E-1,5.092609E-1,1.2134266E0,5.6419516E-1,6.3565445E-1,8.0328435E-2,2.4151897E-1,2.561015E-1,7.6872444E-1,4.9709773E-1,0E0,1.7025304E-1,2.7627856E-2,6.274397E-2,6.9803554E-1,7.873509E-1,2.349997E0,2.4219189E0,1.7830391E0,1.3143806E0,8.162451E-1,2.032795E-1,2.6419348E-1,2.7931738E-1,2.2254225E-3,3.0571222E-4,8.08008E-4,2.441744E-3,3.738928E-2,1.1600113E-1,5.13002E0,1.5352745E0,1.3512117E-1,9.339676E-1,4.9608836E0,2.6031704E0,3.2431686E-1,4.181858E0,1.08055115E-1,3.4824562E0,7.3982697E0,4.6868396E-1,3.399129E-1,4.065931E-1,2.4776244E-1,5.480778E-1,0E0,0E0,0E0,0E0,0E0,0E0,0E0,0E0,0E0,0E0,0E0,0E0,0E0,0E0,0E0,0E0,0E0,0E0,0E0,0E0,0E0,0E0,0E0,0E0,0E0,0E0,0E0,0E0,0E0,0E0,0E0,0E0,0E0,0E0,0E0,0E0,0E0,0E0,0E0,0E0,0E0,0E0,0E0,0E0,0E0,0E0,0E0,0E0,0E0,0E0,0E0,0E0,0E0,0E0,0E0,0E0,0E0,0E0,0E0,0E0,0E0,0E0,0E0,0E0,0E0,0E0,0E0,0E0,0E0,0E0,0E0,0E0,0E0,0E0,0E0,0E0,0E0,0E0,0E0,0E0,0E0,0E0,0E0,0E0,0E0,0E0,0E0,0E0,0E0,0E0,0E0,0E0,0E0,0E0],"parents":[2147483647,0,0,1,1,2,2,3,3,4,4,5,5,6,6,7,7,8,8,9,9,10,10,11,11,12,12,13,13,14,14,15,15,16,16,17,17,18,18,19,19,20,20,21,21,22,22,23,23,24,24,25,25,26,26,27,27,28,28,29,29,30,30,31,31,32,32,34,34,39,39,40,40,41,41,42,42,43,43,44,44,45,45,46,46,47,47,48,48,49,49,50,50,51,51,52,52,53,53,54,54,55,55,56,56,57,57,58,58,59,59,60,60,61,61,62,62,64,64,70,70,71,71,72,72,73,73,74,74,75,75,76,76,77,77,78,78,79,79,80,80,82,82,83,83,84,84,85,85,86,86,87,87,88,88,89,89,90,90,91,91,92,92,93,93,94,94,95,95,96,96,97,97,98,98,99,99,100,100,101,101,102,102,103,103,104,104,105,105,106,106,107,107,108,108,109,109,110,110,111,111,112,112,113,113,114,114,115,115,116,116],"right_children":[2,4,6,8,10,12,14,16,18,20,22,24,26,28,30,32,34,36,38,40,42,44,46,48,50,52,54,56,58,60,62,64,66,-1,68,-1,-1,-1,-1,70,72,74,76,78,80,82,84,86,88,90,92,94,96,98,100,102,104,106,108,110,112,114,116,-1,118,-1,-1,-1,-1,-1,120,122,124,126,128,130,132,134,136,138,140,-1,142,144,146,148,150,152,154,156,158,160,162,164,166,168,170,172,174,176,178,180,182,184,186,188,190,192,194,196,198,200,202,204,206,208,210,-1,-1,-1,-1,-1,-1,-1,-1,-1,-1,-1,-1,-1,-1,-1,-1,-1,-1,-1,-1,-1,-1,-1,-1,-1,-1,-1,-1,-1,-1,-1,-1,-1,-1,-1,-1,-1,-1,-1,-1,-1,-1,-1,-1,-1,-1,-1,-1,-1,-1,-1,-1,-1,-1,-1,-1,-1,-1,-1,-1,-1,-1,-1,-1,-1,-1,-1,-1,-1,-1,-1,-1,-1,-1,-1,-1,-1,-1,-1,-1,-1,-1,-1,-1,-1,-1,-1,-1,-1,-1,-1,-1,-1,-1],"split_conditions":[2.3053148E-1,8.292759E1,6.0409683E1,1.0887654E2,6.155428E1,4.5737804E1,8.5051445E1,7.894399E1,7.5392975E1,9.004E1,-1.6215576E-1,9.997719E1,2.3371239E1,9.194235E1,1.0080769E0,2.246966E-1,8.196524E1,9.638121E-1,1.9796026E1,-8.785981E-1,3.6173916E1,6.2515553E1,9.805519E-1,9.006397E1,3.8486725E1,1.2517993E0,2.7996956E1,9.107227E1,4.3005272E1,2.0437029E1,8.2169846E1,3.7416508E1,7.507028E1,3.405856E-2,3.9676197E1,2.417813E-2,8.422775E-3,3.722829E-2,2.1780042E-2,9.805519E-1,-6.2984556E-1,2.157711E1,4.5737804E1,9.704234E-1,3.903697E1,3.0448936E1,3.961232E1,2.0136091E1,3.6930756E1,-5.395737E-1,2.2076418E1,2.4463503E-1,1.8047203E1,9.7974434E1,3.4983654E1,2.4760318E-1,6.653683E1,2.3101114E1,2.8881624E1,7.894399E1,8.194619E1,8.884463E1,8.505243E1,1.1964784E-3,3.7788948E1,-6.9216713E-3,-1.5106677E-2,-6.739904E-3,8.684571E-3,3.6880184E-2,1.0374799E2,5.9790344E1,8.999887E1,9.2224014E1,2.1946405E-1,9.635852E1,6.433246E1,2.2076243E-1,1.0657544E2,3.0321323E1,8.897715E1,-5.7676616E-3,9.593191E1,7.77333E1,2.1027353E1,8.6969734E1,5.8084366E1,2.1554533E1,-1.08025E0,1.1401862E0,1.0500134E2,3.9900166E1,5.7804787E1,1.0437852E2,2.045189E1,5.9500927E1,1.0684314E2,2.0470743E1,1.0622227E2,1.07304405E2,1.1413418E0,3.435743E1,8.2169846E1,1.0568139E2,7.77333E1,2.0550047E1,1.0215185E2,2.7872792E-1,3.788273E1,1.8875877E1,8.1107796E1,1.0893009E2,6.1467648E1,8.2086235E1,6.500869E1,2.0697968E1,9.2224014E1,-3.9912164E-4,-2.4095492E-3,-1.1486745E-2,-4.7263504E-5,-3.721979E-3,-1.2182007E-2,3.1653175E-3,1.5712373E-2,1.691482E-2,2.6699333E-2,2.1911835E-2,7.675491E-3,3.166824E-2,4.5262348E-2,4.0508555E-3,-9.548216E-3,-1.14631155E-4,-1.3843506E-2,1.604218E-2,-2.1240592E-3,1.0866414E-2,-1.2083592E-2,-6.46073E-3,8.1432E-3,1.3649009E-2,3.147846E-3,-8.602118E-3,1.4256538E-4,-2.8609133E-3,4.525888E-3,-1.0599117E-2,8.557298E-3,1.5859328E-2,-1.0964957E-2,1.4233421E-2,2.6860263E-3,2.095274E-3,2.0917863E-2,1.816108E-2,5.5616558E-2,2.4167465E-2,3.8902055E-2,1.8994492E-2,-4.4475445E-3,2.3860396E-3,2.8366515E-2,1.4638848E-2,-2.1405977E-3,-1.26992045E-2,-4.7827917E-3,-1.4993757E-3,-1.16262694E-4,1.3778964E-2,3.8849637E-3,-1.325395E-3,-5.145792E-3,9.728387E-4,-1.5178159E-3,-1.8114675E-2,-3.5529367E-3,-1.3999966E-2,-8.409384E-3,7.548825E-3,-4.788827E-3,-1.0961039E-2,-7.8012184E-3,1.9372543E-2,1.6613379E-3,-2.0231718E-2,1.0093617E-2,-6.680447E-3,5.5683573E-4,5.3016823E-3,1.5333289E-2,8.495257E-3,1.3250805E-3,-1.2683186E-2,-6.6897455E-3,-1.5514478E-2,-9.472918E-3,2.6196932E-2,8.948338E-3,7.4838693E-3,6.287365E-2,-9.915381E-3,8.273318E-3,-1.2477625E-2,9.477392E-4,-1.3810608E-2,1.0599633E-3,4.43587E-3,9.343783E-3,-3.7675214E-3,2.1286893E-3],"split_indices":[10,4,7,2,7,1,9,4,7,4,9,4,3,4,8,10,4,8,3,9,1,7,8,4,1,8,2,4,1,3,4,1,7,0,1,0,0,0,0,8,9,3,1,8,1,1,2,3,1,9,3,10,2,4,2,10,7,3,2,4,4,9,4,0,1,0,0,0,0,0,2,7,4,4,10,4,1,10,2,1,4,0,4,7,3,4,7,3,9,8,4,1,7,1,3,7,1,2,1,1,8,1,4,2,7,3,4,10,2,3,4,1,7,7,7,2,4,0,0,0,0,0,0,0,0,0,0,0,0,0,0,0,0,0,0,0,0,0,0,0,0,0,0,0,0,0,0,0,0,0,0,0,0,0,0,0,0,0,0,0,0,0,0,0,0,0,0,0,0,0,0,0,0,0,0,0,0,0,0,0,0,0,0,0,0,0,0,0,0,0,0,0,0,0,0,0,0,0,0,0,0,0,0,0,0,0,0,0,0,0,0],"split_type":[0,0,0,0,0,0,0,0,0,0,0,0,0,0,0,0,0,0,0,0,0,0,0,0,0,0,0,0,0,0,0,0,0,0,0,0,0,0,0,0,0,0,0,0,0,0,0,0,0,0,0,0,0,0,0,0,0,0,0,0,0,0,0,0,0,0,0,0,0,0,0,0,0,0,0,0,0,0,0,0,0,0,0,0,0,0,0,0,0,0,0,0,0,0,0,0,0,0,0,0,0,0,0,0,0,0,0,0,0,0,0,0,0,0,0,0,0,0,0,0,0,0,0,0,0,0,0,0,0,0,0,0,0,0,0,0,0,0,0,0,0,0,0,0,0,0,0,0,0,0,0,0,0,0,0,0,0,0,0,0,0,0,0,0,0,0,0,0,0,0,0,0,0,0,0,0,0,0,0,0,0,0,0,0,0,0,0,0,0,0,0,0,0,0,0,0,0,0,0,0,0,0,0,0,0,0,0,0,0,0,0],"sum_hessian":[8.476E3,1.126E3,7.35E3,4.51E2,6.75E2,9.17E2,6.433E3,3E1,4.21E2,3.75E2,3E2,6.14E2,3.03E2,5.67E3,7.63E2,1.6E1,1.4E1,6.9E1,3.52E2,7E1,3.05E2,2.33E2,6.7E1,4.77E2,1.37E2,1.48E2,1.55E2,2.571E3,3.099E3,3.46E2,4.17E2,3E0,1.3E1,2E0,1.2E1,6.7E1,2E0,3.4E2,1.2E1,1E1,6E1,1.99E2,1.06E2,2.8E1,2.05E2,5E1,1.7E1,8.8E1,3.89E2,1.09E2,2.8E1,1.31E2,1.7E1,1E1,1.45E2,2.226E3,3.45E2,1.848E3,1.251E3,2.29E2,1.17E2,1.2E2,2.97E2,1E0,2E0,3E0,1E1,3E0,9E0,7E0,3E0,2.2E1,3.8E1,1.48E2,5.1E1,1.03E2,3E0,1.3E1,1.5E1,1.62E2,4.3E1,2E0,4.8E1,7E0,1E1,2E1,6.8E1,1.77E2,2.12E2,3.2E1,7.7E1,1.4E1,1.4E1,8E0,1.23E2,1.1E1,6E0,8E0,2E0,4.8E1,9.7E1,6.09E2,1.617E3,4E0,3.41E2,1.509E3,3.39E2,6.3E1,1.188E3,8.5E1,1.44E2,6.8E1,4.9E1,6E1,6E1,1.18E2,1.79E2,1E0,1E0,2E0,1E0,1.5E1,7E0,2.7E1,1.1E1,6.5E1,8.3E1,8E0,4.3E1,8.6E1,1.7E1,1E0,2E0,5E0,8E0,1.3E1,2E0,3E0,1.59E2,3.7E1,6E0,4.3E1,5E0,6E0,1E0,4E0,6E0,6E0,1.4E1,2E0,6.6E1,9.3E1,8.4E1,1.9E1,1.93E2,5E0,2.7E1,3.9E1,3.8E1,5E0,9E0,1E0,1.3E1,4E0,4E0,1.2E1,1.11E2,5E0,6E0,5E0,1E0,1E0,7E0,1E0,1E0,4.7E1,1E0,8E1,1.7E1,1E2,5.09E2,6.69E2,9.48E2,2E0,2E0,3.39E2,2E0,2.93E2,1.216E3,2.52E2,8.7E1,3E1,3.3E1,6.6E2,5.28E2,1.1E1,7.4E1,4.1E1,1.03E2,7E0,6.1E1,3E0,4.6E1,5.5E1,5E0,4E0,5.6E1,7.7E1,4.1E1,5.7E1,1.22E2],"tree_param":{"num_deleted":"0","num_feature":"11","num_nodes":"211","size_leaf_vector":"1"}},{"base_weights":[6.289633E-5,3.5446382E-1,-5.427119E-2,6.144658E-1,1.8009196E-1,-6.61893E-2,5.737826E-1,-2.1066755E-2,6.5969574E-1,4.1002536E-1,-5.2422702E-2,1.16175696E-1,-8.936626E-2,8.025701E-1,1.4651996E-1,-1.1509486E-1,4.9089837E-1,6.8979776E-1,4.628005E-1,1.7461191E-1,5.327552E-1,1.3220783E-1,-1.4126891E-1,-8.437008E-2,3.3549786E-1,-1.6067049E-1,-4.7639105E-3,8.6355406E-1,-1.8496689E-1,1.8031627E-2,3.0339056E-1,7.372861E-3,-2.1436095E-1,3.2923274E-2,7.984924E-3,2.201338E-2,3.5000265E-2,4.107487E-1,3.003854E-2,3.978014E-2,2.6330647E-1,1.8488276E-1,5.7574475E-1,1.8277583E-1,-6.70179E-2,-1.8880422E-1,4.5809697E-2,-1.570305E-2,-4.947234E-2,8.377389E-1,1.3948445E-1,-2.0353216E-1,-9.3165785E-2,2.0484564E-1,-5.7388015E-2,8.800639E-1,-1.2669084E-2,-3.9871545E-3,-1.0882151E-2,-4.465333E-2,1.1896777E-1,4.1644618E-1,1.6361603E-3,-1.4514317E-2,-8.9309216E-2,8.142016E-3,4.1831633E-1,-5.1590234E-2,1.7027818E-1,3.7982813E-1,1.3947074E-1,2.7034956E-1,4.3759886E-2,3.9050442E-1,6.573212E-1,2.1022926E-1,-1.5749851E-2,6.970543E-2,-1.4458403E-1,-2.276038E-1,-1.5087615E-1,-1.8172905E-2,1.965146E-1,4.8080858E-2,-5.7558507E-2,4.0355384E-1,1.1145025E0,1.7396985E-1,-1.9137701E-1,-1.7000625E-1,-3.7651503E-1,-4.752501E-3,-1.5768668E-1,2.7652982E-1,-2.2260939E-1,-8.797023E-3,-1.7965484E-1,1.0414642E0,7.6381636E-1,1.29879E-1,-1.2177184E-1,1.0494188E-2,-3.2108165E-2,2.2496926E-2,6.0666683E-3,-6.182178E-3,7.647676E-2,-7.859439E-4,-6.1742286E-3,6.0730996E-3,2.1119762E-2,1.3960457E-2,-5.784325E-3,-8.772921E-3,1.0922052E-2,2.238818E-2,1.0332177E-2,2.792032E-3,1.5103878E-2,2.5418133E-3,1.4079735E-2,-5.950192E-4,7.2070225E-3,7.878067E-3,2.2692202E-2,2.6589597E-2,3.7616394E-2,7.534793E-3,2.100732E-2,-7.0554884E-3,9.931566E-3,-8.9696655E-3,-2.0051003E-4,-1.14408545E-2,-3.051158E-3,-7.92349E-3,3.0748572E-3,3.6082682E-3,1.54973185E-2,-9.569847E-4,-1.0395253E-2,6.22319E-3,3.1547144E-2,2.2027971E-2,6.134912E-2,6.8291905E-3,1.2168313E-2,-4.070683E-3,-1.8508669E-2,-2.2569555E-3,-8.898032E-3,5.1191943E-3,-1.9051423E-2,-6.498919E-3,6.6208527E-3,3.0863825E-3,-1.1175209E-2,6.58455E-3,1.7692337E-2,-1.28437625E-2,-1.5242144E-3,-3.5616134E-3,3.5853945E-3,-1.0561496E-2,-4.45798E-3,5.5102613E-2,1.7091727E-2,3.9405342E-2,1.889323E-2,1.0831374E-2,1.6173947E-3,-7.8008915E-3,7.2294995E-3,-6.8700807E-3,1.42828E-3,7.1683875E-3,-7.9532416E-4],"categories":[],"categories_nodes":[],"categories_segments":[],"categories_sizes":[],"default_left":[0,0,0,0,0,0,0,0,0,0,0,0,0,0,0,0,0,0,0,0,0,0,0,0,0,0,0,0,0,0,0,0,0,0,0,0,0,0,0,0,0,0,0,0,0,0,0,0,0,0,0,0,0,0,0,0,0,0,0,0,0,0,0,0,0,0,0,0,0,0,0,0,0,0,0,0,0,0,0,0,0,0,0,0,0,0,0,0,0,0,0,0,0,0,0,0,0,0,0,0,0,0,0,0,0,0,0,0,0,0,0,0,0,0,0,0,0,0,0,0,0,0,0,0,0,0,0,0,0,0,0,0,0,0,0,0,0,0,0,0,0,0,0,0,0,0,0,0,0,0,0,0,0,0,0,0,0,0,0,0,0,0,0,0,0,0,0,0,0,0,0,0,0,0,0,0,0],"id":1,"left_children":[1,3,5,7,9,11,13,15,17,19,21,23,25,27,29,31,33,35,37,39,41,43,45,47,49,51,53,55,57,59,61,-1,63,-1,-1,-1,-1,65,-1,67,69,71,73,75,77,79,81,-1,83,85,87,89,91,93,95,97,-1,-1,-1,99,101,103,105,-1,107,-1,109,111,113,115,117,119,121,123,125,127,-1,129,131,133,135,-1,137,-1,139,141,143,145,147,149,151,153,155,157,159,161,163,165,167,169,171,-1,173,-1,-1,-1,175,-1,-1,-1,-1,-1,-1,-1,-1,-1,-1,-1,-1,-1,-1,-1,-1,-1,-1,-1,-1,-1,-1,-1,-1,-1,-1,-1,-1,-1,-1,-1,-1,-1,-1,-1,-1,-1,-1,-1,-1,-1,-1,-1,-1,-1,-1,-1,-1,-1,-1,-1,-1,-1,-1,-1,-1,-1,-1,-1,-1,-1,-1,-1,-1,-1,-1,-1,-1,-1,-1],"loss_changes":[1.6325278E2,5.098416E1,5.5061745E1,1.3006699E1,3.6162407E1,3.0505783E1,1.3274479E1,1.5488123E0,2.1819305E0,9.730343E0,5.5467315E0,3.5831387E1,3.861933E1,5.519657E0,9.8217547E-1,7.3529696E-1,1.7233515E-1,6.189575E-1,1.7694855E-1,1.4006696E0,3.2284966E0,1.1204385E0,2.0362163E0,3.3991482E0,3.8178635E1,1.0032585E1,3.232013E1,1.7719841E0,3.2743365E-3,1.8247329E-1,7.4984956E-1,0E0,1.6396683E-1,0E0,0E0,0E0,0E0,1.8180847E-2,0E0,5.8112013E-1,9.7152233E-1,3.0176383E-1,2.7353363E0,1.2687919E0,2.539956E-1,2.3348951E-1,2.9703221E0,0E0,3.088586E0,1.2648392E1,3.2394724E0,1.2253929E1,7.7060366E0,1.8078918E1,1.3912397E1,7.6179504E-1,0E0,0E0,0E0,2.5808975E-1,1.5782638E-1,1.03551626E-1,7.508792E-2,0E0,2.0693742E-2,0E0,1.9717216E-3,6.4718777E-1,3.7136066E-1,3.3102608E-1,4.726894E-1,2.5180101E-2,6.317462E-2,8.5802555E-1,1.2218704E0,9.864402E-1,0E0,2.726446E-1,7.267967E-2,3.8232803E-3,1.6295123E-1,0E0,4.7131312E-1,0E0,2.1274152E0,2.7138E0,4.46257E0,6.283469E-1,5.007111E-1,1.7609329E0,7.8255844E-1,9.825379E0,1.1292452E1,5.597439E0,5.5175257E-1,8.434287E0,1.8841915E0,9.797325E-1,1.8969917E-1,4.375661E-2,1.4114231E-1,0E0,3.586771E-2,0E0,0E0,0E0,3.317851E-2,0E0,0E0,0E0,0E0,0E0,0E0,0E0,0E0,0E0,0E0,0E0,0E0,0E0,0E0,0E0,0E0,0E0,0E0,0E0,0E0,0E0,0E0,0E0,0E0,0E0,0E0,0E0,0E0,0E0,0E0,0E0,0E0,0E0,0E0,0E0,0E0,0E0,0E0,0E0,0E0,0E0,0E0,0E0,0E0,0E0,0E0,0E0,0E0,0E0,0E0,0E0,0E0,0E0,0E0,0E0,0E0,0E0,0E0,0E0,0E0,0E0,0E0,0E0,0E0,0E0,0E0,0E0,0E0,0E0,0E0],"parents":[2147483647,0,0,1,1,2,2,3,3,4,4,5,5,6,6,7,7,8,8,9,9,10,10,11,11,12,12,13,13,14,14,15,15,16,16,17,17,18,18,19,19,20,20,21,21,22,22,23,23,24,24,25,25,26,26,27,27,28,28,29,29,30,30,32,32,37,37,39,39,40,40,41,41,42,42,43,43,44,44,45,45,46,46,48,48,49,49,50,50,51,51,52,52,53,53,54,54,55,55,59,59,60,60,61,61,62,62,64,64,66,66,67,67,68,68,69,69,70,70,71,71,72,72,73,73,74,74,75,75,77,77,78,78,79,79,80,80,82,82,84,84,85,85,86,86,87,87,88,88,89,89,90,90,91,91,92,92,93,93,94,94,95,95,96,96,97,97,98,98,99,99,100,100,102,102,106,106],"right_children":[2,4,6,8,10,12,14,16,18,20,22,24,26,28,30,32,34,36,38,40,42,44,46,48,50,52,54,56,58,60,62,-1,64,-1,-1,-1,-1,66,-1,68,70,72,74,76,78,80,82,-1,84,86,88,90,92,94,96,98,-1,-1,-1,100,102,104,106,-1,108,-1,110,112,114,116,118,120,122,124,126,128,-1,130,132,134,136,-1,138,-1,140,142,144,146,148,150,152,154,156,158,160,162,164,166,168,170,172,-1,174,-1,-1,-1,176,-1,-1,-1,-1,-1,-1,-1,-1,-1,-1,-1,-1,-1,-1,-1,-1,-1,-1,-1,-1,-1,-1,-1,-1,-1,-1,-1,-1,-1,-1,-1,-1,-1,-1,-1,-1,-1,-1,-1,-1,-1,-1,-1,-1,-1,-1,-1,-1,-1,-1,-1,-1,-1,-1,-1,-1,-1,-1,-1,-1,-1,-1,-1,-1,-1,-1,-1,-1,-1,-1],"split_conditions":[2.3053148E-1,8.292759E1,4.530858E0,1.0887654E2,1.0448768E2,3.866446E0,1.0425985E2,8.837072E1,2.246966E-1,4.222521E0,1.0540088E2,8.048909E1,4.064879E0,3.9146408E1,1.0366753E2,2.1758146E1,1.0663189E2,1.0943416E2,1.1107652E2,4.1065683E0,3.171328E1,9.618128E1,8.994707E1,7.894399E1,8.1107796E1,9.194235E1,1.0562982E2,2.6518658E-1,8.507052E1,9.802658E1,1.1178561E2,7.372861E-3,3.9018936E0,3.2923274E-2,7.984924E-3,2.201338E-2,3.5000265E-2,8.507052E1,3.003854E-2,2.2734126E-1,3.3003944E1,4.501714E0,9.1263855E1,1.0389355E0,4.322048E0,3.6422375E1,4.02691E0,-1.570305E-2,1.0080769E0,1.0927037E2,2.741842E-1,9.107227E1,4.0843906E1,6.433246E1,4.2120655E1,8.724956E1,-1.2669084E-2,-3.9871545E-3,-1.0882151E-2,3.056599E1,1.1236456E2,1.1238687E2,1.0774548E2,-1.4514317E-2,2.246966E-1,8.142016E-3,4.0837336E0,9.558537E-1,9.909127E-1,9.928768E1,3.6577793E1,8.715299E1,1.0471497E2,9.0029686E1,4.4470696E0,9.198333E1,-1.5749851E-2,3.788273E1,1.1335491E2,2.301884E-1,1.10988045E2,-1.8172905E-2,3.8294495E1,4.8080858E-2,2.719455E1,8.000936E1,8.1547066E1,2.2601105E1,9.5995766E1,1.0528748E2,1.0344034E2,7.733156E1,2.9428362E1,4.183116E0,4.384791E0,9.762582E1,4.352637E0,1.0460934E2,3.7918465E1,3.0225153E1,4.059804E1,1.0494188E-2,9.067485E1,2.2496926E-2,6.0666683E-3,-6.182178E-3,4.4425465E1,-7.859439E-4,-6.1742286E-3,6.0730996E-3,2.1119762E-2,1.3960457E-2,-5.784325E-3,-8.772921E-3,1.0922052E-2,2.238818E-2,1.0332177E-2,2.792032E-3,1.5103878E-2,2.5418133E-3,1.4079735E-2,-5.950192E-4,7.2070225E-3,7.878067E-3,2.2692202E-2,2.6589597E-2,3.7616394E-2,7.534793E-3,2.100732E-2,-7.0554884E-3,9.931566E-3,-8.9696655E-3,-2.0051003E-4,-1.14408545E-2,-3.051158E-3,-7.92349E-3,3.0748572E-3,3.6082682E-3,1.54973185E-2,-9.569847E-4,-1.0395253E-2,6.22319E-3,3.1547144E-2,2.2027971E-2,6.134912E-2,6.8291905E-3,1.2168313E-2,-4.070683E-3,-1.8508669E-2,-2.2569555E-3,-8.898032E-3,5.1191943E-3,-1.9051423E-2,-6.498919E-3,6.6208527E-3,3.0863825E-3,-1.1175209E-2,6.58455E-3,1.7692337E-2,-1.28437625E-2,-1.5242144E-3,-3.5616134E-3,3.5853945E-3,-1.0561496E-2,-4.45798E-3,5.5102613E-2,1.7091727E-2,3.9405342E-2,1.889323E-2,1.0831374E-2,1.6173947E-3,-7.8008915E-3,7.2294995E-3,-6.8700807E-3,1.42828E-3,7.1683875E-3,-7.9532416E-4],"split_indices":[10,4,5,2,6,5,6,0,10,5,2,0,5,1,4,2,1,6,6,5,1,4,4,4,4,4,6,10,0,4,1,0,5,0,0,0,0,0,0,10,1,5,4,8,5,1,5,0,8,1,10,4,1,1,1,0,0,0,0,1,1,6,6,0,10,0,5,8,8,0,1,0,2,4,5,4,0,2,6,10,6,0,1,0,2,4,0,2,4,6,2,0,2,5,5,4,5,4,1,1,1,0,0,0,0,0,2,0,0,0,0,0,0,0,0,0,0,0,0,0,0,0,0,0,0,0,0,0,0,0,0,0,0,0,0,0,0,0,0,0,0,0,0,0,0,0,0,0,0,0,0,0,0,0,0,0,0,0,0,0,0,0,0,0,0,0,0,0,0,0,0,0,0,0,0,0,0],"split_type":[0,0,0,0,0,0,0,0,0,0,0,0,0,0,0,0,0,0,0,0,0,0,0,0,0,0,0,0,0,0,0,0,0,0,0,0,0,0,0,0,0,0,0,0,0,0,0,0,0,0,0,0,0,0,0,0,0,0,0,0,0,0,0,0,0,0,0,0,0,0,0,0,0,0,0,0,0,0,0,0,0,0,0,0,0,0,0,0,0,0,0,0,0,0,0,0,0,0,0,0,0,0,0,0,0,0,0,0,0,0,0,0,0,0,0,0,0,0,0,0,0,0,0,0,0,0,0,0,0,0,0,0,0,0,0,0,0,0,0,0,0,0,0,0,0,0,0,0,0,0,0,0,0,0,0,0,0,0,0,0,0,0,0,0,0,0,0,0,0,0,0,0,0,0,0,0,0],"sum_hessian":[8.476E3,1.126E3,7.35E3,4.51E2,6.75E2,7.214E3,1.36E2,3E1,4.21E2,3.39E2,3.36E2,8.13E2,6.401E3,8.8E1,4.8E1,2.6E1,4E0,3.63E2,5.8E1,1.17E2,2.22E2,1.09E2,2.27E2,4.25E2,3.88E2,3.473E3,2.928E3,8.3E1,5E0,2.7E1,2.1E1,7E0,1.9E1,2E0,2E0,1.6E1,3.47E2,4.5E1,1.3E1,4.7E1,7E1,2.5E1,1.97E2,8.7E1,2.2E1,1.81E2,4.6E1,5.5E1,3.7E2,1.08E2,2.8E2,2.123E3,1.35E3,5.87E2,2.341E3,8.2E1,1E0,2E0,3E0,1.7E1,1E1,1.5E1,6E0,1.1E1,8E0,2E0,4.3E1,2.8E1,1.9E1,3.5E1,3.5E1,1.5E1,1E1,6.2E1,1.35E2,8.3E1,4E0,8E0,1.4E1,8.7E1,9.4E1,1.2E1,3.4E1,2E0,3.68E2,4.3E1,6.5E1,2.54E2,2.6E1,1.78E3,3.43E2,5.7E2,7.8E2,5.03E2,8.4E1,1.676E3,6.65E2,3.1E1,5.1E1,5E0,1.2E1,6E0,4E0,1.3E1,2E0,2E0,4E0,3E0,5E0,1E0,4.2E1,4E0,2.4E1,2E0,1.7E1,2.4E1,1.1E1,2.4E1,1.1E1,1E0,1.4E1,7E0,3E0,1.4E1,4.8E1,6.1E1,7.4E1,6.6E1,1.7E1,3E0,5E0,1.1E1,3E0,8.6E1,1E0,9.1E1,3E0,1.7E1,1.7E1,2.94E2,7.4E1,2E1,2.3E1,1E1,5.5E1,1.67E2,8.7E1,1.7E1,9E0,1.07E2,1.673E3,3E0,3.4E2,2.98E2,2.72E2,1.8E2,6E2,1.76E2,3.27E2,7.1E1,1.3E1,9.44E2,7.32E2,4.92E2,1.73E2,2.8E1,3E0,4.7E1,4E0,2E0,3E0,1.1E1,1E0,1E0,3E0,2E0,2E0],"tree_param":{"num_deleted":"0","num_feature":"11","num_nodes":"177","size_leaf_vector":"1"}},{"base_weights":[1.2644242E-4,3.370212E-1,-5.1523745E-2,2.0468096E-1,5.60153E-1,1.5425898E-1,-7.6044425E-2,3.768123E-1,1.0291527E-2,1.4598371E-2,6.566568E-1,3.0804002E-1,-1.6723005E-1,-1.03363924E-1,1.3044484E-1,2.9852334E-1,5.209518E-1,-2.2058628E-1,1.02986E-1,-1.4872961E-1,2.0466106E-1,6.6388595E-1,-7.274023E-3,3.753144E-1,-6.950941E-2,-6.695035E-2,-2.6857015E-1,-1.523834E-1,-5.1007055E-2,-2.0679694E-2,3.2792187E-1,2.4508369E-1,4.1263005E-1,5.5495346E-1,-1.6207198E-3,-2.0692764E-1,-1.5867895E-2,-1.27243E-2,2.257885E-1,-2.3991859E-1,-2.5447754E-2,-6.9673248E-3,2.3420969E-1,3.3610027E-2,1.973593E-2,3.3558774E-1,6.8641603E-1,1.1059982E-1,-1.7208186E-1,-8.677386E-2,8.94932E-2,-8.101042E-2,-2.8404075E-1,-2.1162452E-1,-1.3385734E-1,9.920204E-3,-1.4815073E-1,-1.1790666E-1,7.018566E-2,1.8775979E-1,6.5731746E-1,3.0730498E-1,1.0939731E-1,5.5494237E-1,3.0465996E-1,5.813271E-1,-5.622044E-2,7.5014174E-2,-8.994762E-3,-1.0737388E-2,-6.668765E-3,1.2894855E-1,-1.16834536E-1,2.9635894E-1,-2.6914302E-1,-2.9108346E-1,-2.8207362E-2,-1.6697784E-1,3.564376E-2,8.156371E-3,1.4246957E-2,4.444464E-1,2.4123545E-1,7.134347E-1,2.531149E-2,1.755931E-1,-1.2803423E-1,1.3407561E-1,-1.1134291E-2,1.4341554E-1,-1.0076057E-1,-2.3079425E-2,1.3109936E-2,-3.5050273E-2,-5.1133092E-3,-3.2731545E-1,-2.4107057E-1,-2.3389407E-1,1.750926E-2,4.109798E-2,-1.4382987E-1,-3.1530883E-2,1.00772455E-1,1.2405248E-2,-1.7420481E-1,-1.7726685E-1,3.4437593E-2,3.217031E-1,4.6873074E-2,-8.670465E-2,2.3302726E-1,9.1180253E-1,2.5915703E-1,-1.6035287E-2,1.6340798E-2,1.3765094E-2,1.3966026E-3,2.8444976E-2,3.0567676E-3,4.540407E-3,1.976912E-2,3.4270808E-5,2.9823417E-2,-9.57374E-3,1.5501283E-2,1.1081198E-4,5.184505E-3,1.360458E-2,2.047708E-3,-7.973839E-3,1.8940475E-2,1.7560398E-2,5.668783E-3,-2.8028449E-3,-1.707664E-2,-1.501922E-2,-3.789223E-3,6.303291E-4,-2.9809426E-3,3.6717043E-3,-1.2271967E-2,3.4308375E-3,-1.2120887E-3,1.5023415E-2,2.7807629E-2,1.0031549E-3,1.4788884E-2,3.1531842E-3,3.629653E-2,2.1763296E-4,1.6807289E-3,-5.9912535E-3,1.2033399E-2,-9.388542E-3,5.7596327E-3,1.5966672E-2,-2.047289E-3,5.06752E-4,1.2042108E-2,-1.1901028E-2,-4.1462528E-3,-4.2934E-4,-1.565502E-3,-2.6263208E-3,8.7135733E-4,-1.6550323E-2,-3.2000772E-3,-1.4860836E-2,-1.0137989E-2,-1.3875805E-2,-8.270273E-3,2.5754465E-2,-4.774037E-3,8.4090745E-3,-6.0695955E-3,-6.744875E-3,-1.4540346E-2,-3.9110244E-3,3.290546E-3,9.629443E-3,9.722792E-4,-1.9928883E-3,7.7434964E-3,2.6701593E-3,-9.264326E-3,-1.063311E-2,-3.6421665E-3,-3.4260712E-4,3.6642253E-3,-3.8222224E-3,5.0758123E-2,-8.464425E-3,2.706589E-3,-9.2717055E-3,-4.1611615E-4,1.6311975E-2,7.1904953E-3,1.1302739E-2,6.1203726E-2,2.451251E-2,6.486627E-3],"categories":[],"categories_nodes":[],"categories_segments":[],"categories_sizes":[],"default_left":[0,0,0,0,0,0,0,0,0,0,0,0,0,0,0,0,0,0,0,0,0,0,0,0,0,0,0,0,0,0,0,0,0,0,0,0,0,0,0,0,0,0,0,0,0,0,0,0,0,0,0,0,0,0,0,0,0,0,0,0,0,0,0,0,0,0,0,0,0,0,0,0,0,0,0,0,0,0,0,0,0,0,0,0,0,0,0,0,0,0,0,0,0,0,0,0,0,0,0,0,0,0,0,0,0,0,0,0,0,0,0,0,0,0,0,0,0,0,0,0,0,0,0,0,0,0,0,0,0,0,0,0,0,0,0,0,0,0,0,0,0,0,0,0,0,0,0,0,0,0,0,0,0,0,0,0,0,0,0,0,0,0,0,0,0,0,0,0,0,0,0,0,0,0,0,0,0,0,0,0,0,0,0,0,0,0,0,0,0,0,0,0,0,0,0,0,0,0,0,0,0],"id":2,"left_children":[1,3,5,7,9,11,13,15,17,19,21,23,25,27,29,31,33,35,37,39,41,43,-1,45,47,49,51,53,55,57,59,61,63,65,67,69,-1,71,73,75,77,-1,79,-1,-1,81,83,85,87,89,91,93,95,97,99,101,103,105,107,109,111,113,115,117,119,121,123,125,-1,-1,-1,127,129,131,133,135,137,139,141,-1,-1,143,145,147,149,151,153,155,-1,157,159,161,-1,163,-1,165,167,169,171,173,175,177,179,181,183,185,187,189,191,193,195,197,199,-1,-1,-1,-1,-1,-1,-1,-1,-1,-1,-1,-1,-1,-1,-1,-1,-1,-1,-1,-1,-1,-1,-1,-1,-1,-1,-1,-1,-1,-1,-1,-1,-1,-1,-1,-1,-1,-1,-1,-1,-1,-1,-1,-1,-1,-1,-1,-1,-1,-1,-1,-1,-1,-1,-1,-1,-1,-1,-1,-1,-1,-1,-1,-1,-1,-1,-1,-1,-1,-1,-1,-1,-1,-1,-1,-1,-1,-1,-1,-1,-1,-1,-1,-1,-1,-1,-1,-1],"loss_changes":[1.4752292E2,3.31649E1,3.7104385E1,2.3719627E1,2.2049973E1,3.876219E1,3.7070408E1,4.087467E0,7.170684E0,2.0171626E0,2.1609344E0,1.348777E1,2.5632577E0,1.4883095E1,2.2926685E1,1.3989372E0,2.3285522E0,6.1219215E-2,3.398947E0,3.8736278E-1,3.3758497E-1,5.246887E-1,0E0,5.3312073E0,1.515446E0,4.0782815E-1,3.4259892E-1,3.2597961E0,1.6615253E1,3.8601446E0,1.5250786E1,1.4016199E0,1.0140734E0,2.0153008E0,1.3645314E-1,2.1399498E-2,0E0,1.8440154E0,4.131356E0,2.084328E-1,1.4429232E-1,0E0,5.448556E-2,0E0,0E0,4.0114822E0,8.750534E-1,4.8777023E-1,8.354814E-1,3.8470381E-1,2.9768008E-1,7.1616396E-3,1.367979E-1,3.6372185E0,3.9926605E0,6.503163E0,4.5283184E0,1.9142163E0,1.3100767E0,2.9399185E0,9.79496E0,1.5261688E0,7.356605E-1,1.8576813E-1,8.5654926E-1,1.0369987E0,3.5658038E-1,1.4383037E-2,0E0,0E0,0E0,6.564333E-1,1.5821579E0,9.8390007E-1,2.1223366E-1,9.275317E-3,7.161724E-3,1.1233899E-1,2.535865E-2,0E0,0E0,2.8082962E0,2.6117887E0,3.4431267E-1,3.7575606E-4,4.9022138E-1,1.2333664E-1,2.7246803E-1,0E0,8.845453E-2,2.4710536E-1,9.2397956E-4,0E0,5.5008996E-3,0E0,3.2269E-2,7.309866E-2,1.8930588E0,3.6473615E0,2.5809894E0,2.7991562E0,5.39534E0,4.0359793E0,1.137909E0,2.358141E0,5.463171E-1,9.674089E-2,5.3234873E0,3.355268E-1,2.6157063E-1,1.6329451E0,1.2571678E1,1.1327634E0,0E0,0E0,0E0,0E0,0E0,0E0,0E0,0E0,0E0,0E0,0E0,0E0,0E0,0E0,0E0,0E0,0E0,0E0,0E0,0E0,0E0,0E0,0E0,0E0,0E0,0E0,0E0,0E0,0E0,0E0,0E0,0E0,0E0,0E0,0E0,0E0,0E0,0E0,0E0,0E0,0E0,0E0,0E0,0E0,0E0,0E0,0E0,0E0,0E0,0E0,0E0,0E0,0E0,0E0,0E0,0E0,0E0,0E0,0E0,0E0,0E0,0E0,0E0,0E0,0E0,0E0,0E0,0E0,0E0,0E0,0E0,0E0,0E0,0E0,0E0,0E0,0E0,0E0,0E0,0E0,0E0,0E0,0E0,0E0,0E0,0E0,0E0,0E0],"parents":[2147483647,0,0,1,1,2,2,3,3,4,4,5,5,6,6,7,7,8,8,9,9,10,10,11,11,12,12,13,13,14,14,15,15,16,16,17,17,18,18,19,19,20,20,21,21,23,23,24,24,25,25,26,26,27,27,28,28,29,29,30,30,31,31,32,32,33,33,34,34,35,35,37,37,38,38,39,39,40,40,42,42,45,45,46,46,47,47,48,48,49,49,50,50,51,51,52,52,53,53,54,54,55,55,56,56,57,57,58,58,59,59,60,60,61,61,62,62,63,63,64,64,65,65,66,66,67,67,71,71,72,72,73,73,74,74,75,75,76,76,77,77,78,78,81,81,82,82,83,83,84,84,85,85,86,86,87,87,89,89,90,90,91,91,93,93,95,95,96,96,97,97,98,98,99,99,100,100,101,101,102,102,103,103,104,104,105,105,106,106,107,107,108,108,109,109,110,110,111,111,112,112],"right_children":[2,4,6,8,10,12,14,16,18,20,22,24,26,28,30,32,34,36,38,40,42,44,-1,46,48,50,52,54,56,58,60,62,64,66,68,70,-1,72,74,76,78,-1,80,-1,-1,82,84,86,88,90,92,94,96,98,100,102,104,106,108,110,112,114,116,118,120,122,124,126,-1,-1,-1,128,130,132,134,136,138,140,142,-1,-1,144,146,148,150,152,154,156,-1,158,160,162,-1,164,-1,166,168,170,172,174,176,178,180,182,184,186,188,190,192,194,196,198,200,-1,-1,-1,-1,-1,-1,-1,-1,-1,-1,-1,-1,-1,-1,-1,-1,-1,-1,-1,-1,-1,-1,-1,-1,-1,-1,-1,-1,-1,-1,-1,-1,-1,-1,-1,-1,-1,-1,-1,-1,-1,-1,-1,-1,-1,-1,-1,-1,-1,-1,-1,-1,-1,-1,-1,-1,-1,-1,-1,-1,-1,-1,-1,-1,-1,-1,-1,-1,-1,-1,-1,-1,-1,-1,-1,-1,-1,-1,-1,-1,-1,-1,-1,-1,-1,-1,-1,-1],"split_conditions":[2.3053148E-1,7.562721E1,6.0146816E1,6.155428E1,1.0726774E2,4.4093807E1,8.5051445E1,3.6173916E1,1.9301237E1,8.072738E1,2.0099426E1,2.6518658E-1,2.3371239E1,8.344048E1,8.145848E1,1.0024376E0,4.5737804E1,1.0425367E0,6.641596E1,9.779815E-1,1.0715894E2,1.9796026E1,-7.274023E-3,2.2933731E1,1.0368613E2,1.2517993E0,2.7996956E1,3.237505E1,4.5737804E1,7.740408E1,1.0952847E2,2.2431396E-1,2.2695458E-1,1.0540088E2,9.42572E1,3.7840996E1,-1.5867895E-2,1.0691683E2,9.717646E-1,8.943285E1,3.6820232E1,-6.9673248E-3,2.1937984E1,3.3610027E-2,1.973593E-2,-5.5187696E-1,1.0450323E2,2.8766564E-1,5.8084366E1,2.4463503E-1,1.8047203E1,2.3514126E1,3.551048E1,8.500917E1,6.1467648E1,9.116577E1,2.4570379E-1,1.182261E0,1.0080769E0,1.0810348E2,9.79286E-1,1.9631166E1,9.6548706E-1,6.0707275E1,1.0116727E0,1.9076178E1,3.81497E1,8.7839424E1,-8.994762E-3,-1.0737388E-2,-6.668765E-3,9.2444565E1,-1.8936858E-1,3.9900166E1,7.130699E1,9.2444565E1,8.631041E1,2.8117031E1,9.98867E1,8.156371E-3,1.4246957E-2,2.0471949E1,8.574834E1,2.4918756E1,9.136177E1,1.0120018E2,3.856425E1,3.2550816E1,-1.1134291E-2,6.552524E1,7.374025E1,2.1908976E1,1.3109936E-2,8.5291306E1,-5.1133092E-3,1.07304405E2,1.02600815E2,2.0899633E1,1.0522075E2,2.5293413E-1,2.3750952E1,1.104568E0,6.46004E1,4.1991913E1,2.8881624E1,8.884463E1,1.0824142E2,9.052615E1,1.7468754E1,9.211764E-1,9.7517866E-1,2.4302517E-1,9.935701E-1,-1.6035287E-2,1.6340798E-2,1.3765094E-2,1.3966026E-3,2.8444976E-2,3.0567676E-3,4.540407E-3,1.976912E-2,3.4270808E-5,2.9823417E-2,-9.57374E-3,1.5501283E-2,1.1081198E-4,5.184505E-3,1.360458E-2,2.047708E-3,-7.973839E-3,1.8940475E-2,1.7560398E-2,5.668783E-3,-2.8028449E-3,-1.707664E-2,-1.501922E-2,-3.789223E-3,6.303291E-4,-2.9809426E-3,3.6717043E-3,-1.2271967E-2,3.4308375E-3,-1.2120887E-3,1.5023415E-2,2.7807629E-2,1.0031549E-3,1.4788884E-2,3.1531842E-3,3.629653E-2,2.1763296E-4,1.6807289E-3,-5.9912535E-3,1.2033399E-2,-9.388542E-3,5.7596327E-3,1.5966672E-2,-2.047289E-3,5.06752E-4,1.2042108E-2,-1.1901028E-2,-4.1462528E-3,-4.2934E-4,-1.565502E-3,-2.6263208E-3,8.7135733E-4,-1.6550323E-2,-3.2000772E-3,-1.4860836E-2,-1.0137989E-2,-1.3875805E-2,-8.270273E-3,2.5754465E-2,-4.774037E-3,8.4090745E-3,-6.0695955E-3,-6.744875E-3,-1.4540346E-2,-3.9110244E-3,3.290546E-3,9.629443E-3,9.722792E-4,-1.9928883E-3,7.7434964E-3,2.6701593E-3,-9.264326E-3,-1.063311E-2,-3.6421665E-3,-3.4260712E-4,3.6642253E-3,-3.8222224E-3,5.0758123E-2,-8.464425E-3,2.706589E-3,-9.2717055E-3,-4.1611615E-4,1.6311975E-2,7.1904953E-3,1.1302739E-2,6.1203726E-2,2.451251E-2,6.486627E-3],"split_indices":[10,7,7,7,2,1,9,1,3,9,3,10,3,0,0,8,1,8,7,8,1,3,0,3,2,8,2,1,1,7,1,10,10,2,0,1,0,2,8,7,1,0,2,0,0,9,2,10,7,10,2,3,2,7,7,0,10,8,8,1,8,3,8,7,8,3,1,0,0,0,0,0,9,1,7,0,0,1,0,0,0,3,0,1,0,2,1,1,0,9,0,3,0,0,0,1,1,3,2,10,3,8,7,2,2,9,1,9,3,8,8,10,8,0,0,0,0,0,0,0,0,0,0,0,0,0,0,0,0,0,0,0,0,0,0,0,0,0,0,0,0,0,0,0,0,0,0,0,0,0,0,0,0,0,0,0,0,0,0,0,0,0,0,0,0,0,0,0,0,0,0,0,0,0,0,0,0,0,0,0,0,0,0,0,0,0,0,0,0,0,0,0,0,0,0,0,0,0,0,0,0],"split_type":[0,0,0,0,0,0,0,0,0,0,0,0,0,0,0,0,0,0,0,0,0,0,0,0,0,0,0,0,0,0,0,0,0,0,0,0,0,0,0,0,0,0,0,0,0,0,0,0,0,0,0,0,0,0,0,0,0,0,0,0,0,0,0,0,0,0,0,0,0,0,0,0,0,0,0,0,0,0,0,0,0,0,0,0,0,0,0,0,0,0,0,0,0,0,0,0,0,0,0,0,0,0,0,0,0,0,0,0,0,0,0,0,0,0,0,0,0,0,0,0,0,0,0,0,0,0,0,0,0,0,0,0,0,0,0,0,0,0,0,0,0,0,0,0,0,0,0,0,0,0,0,0,0,0,0,0,0,0,0,0,0,0,0,0,0,0,0,0,0,0,0,0,0,0,0,0,0,0,0,0,0,0,0,0,0,0,0,0,0,0,0,0,0,0,0,0,0,0,0,0,0],"sum_hessian":[8.476E3,1.126E3,7.35E3,7.08E2,4.18E2,7.82E2,6.568E3,3.75E2,3.33E2,6.3E1,3.55E2,5.29E2,2.53E2,5.801E3,7.67E2,2.45E2,1.3E2,9.5E1,2.38E2,3.4E1,2.9E1,3.52E2,3E0,4.49E2,8E1,1.28E2,1.25E2,2.995E3,2.806E3,4.35E2,3.32E2,1.69E2,7.6E1,1.22E2,8E0,8.6E1,9E0,1.23E2,1.15E2,1.9E1,1.5E1,2E0,2.7E1,3.4E2,1.2E1,4E2,4.9E1,2.9E1,5.1E1,1.14E2,1.4E1,1E1,1.15E2,7.11E2,2.284E3,1.725E3,1.081E3,2.1E2,2.25E2,2.34E2,9.8E1,1.15E2,5.4E1,3.1E1,4.5E1,1.17E2,5E0,6E0,2E0,7.6E1,1E1,5.2E1,7.1E1,1.01E2,1.4E1,1.5E1,4E0,4E0,1.1E1,1.3E1,1.4E1,1.84E2,2.16E2,4.7E1,2E0,2.3E1,6E0,7E0,4.4E1,6E0,1.08E2,9E0,5E0,4E0,6E0,5.4E1,6.1E1,6.48E2,6.3E1,1.23E2,2.161E3,1.185E3,5.4E2,1.51E2,9.3E2,1.51E2,5.9E1,1.8E1,2.07E2,3.3E1,2.01E2,5.9E1,3.9E1,3E0,1.12E2,1.7E1,3.7E1,3E1,1E0,1.4E1,3.1E1,3E0,1.14E2,4E0,1E0,2E0,4E0,1.9E1,3.3E1,6.6E1,5E0,7.7E1,2.4E1,4E0,1E1,1.4E1,1E0,2E0,2E0,1E0,3E0,7E0,4E0,8.2E1,1.02E2,4.3E1,1.73E2,1E0,4.6E1,1E0,1E0,4E0,1.9E1,5E0,1E0,3E0,4E0,3E0,3E0,1.1E1,9.7E1,4E0,5E0,3E0,1E0,5.3E1,1E0,2.2E1,3.9E1,3.94E2,2.54E2,1.1E1,5.2E1,6.9E1,5.4E1,2.039E3,1.22E2,8.01E2,3.84E2,2.53E2,2.87E2,1.11E2,4E1,4.3E1,8.87E2,1.12E2,3.9E1,2.9E1,3E1,1.2E1,6E0,6E0,2.01E2,1.4E1,1.9E1,9.7E1,1.04E2,1.9E1,4E1,1.3E1,2.6E1],"tree_param":{"num_deleted":"0","num_feature":"11","num_nodes":"201","size_leaf_vector":"1"}},{"base_weights":[1.5925379E-4,3.2028908E-1,-4.892066E-2,1.9458804E-1,5.3222644E-1,-5.9898827E-2,5.2959293E-1,3.582466E-1,9.767052E-3,1.3679322E-2,6.2395334E-1,-8.102248E-2,1.2644441E-1,8.3320224E-1,1.8046881E-1,1.7895404E-1,4.6145424E-1,-8.634535E-2,1.7534481E-1,-1.4208E-1,1.9494255E-1,1.8026412E-2,6.307877E-1,-1.4454505E-1,-3.6506439E-3,-2.313941E-2,3.0808723E-1,8.514823E-1,-1.2074E-2,4.223804E-1,9.9447735E-2,-3.811789E-2,2.3904832E-1,2.831469E-1,5.533649E-1,-1.3219842E-1,1.962365E-1,2.7236745E-1,-2.824577E-1,-2.1751122E-1,2.062244E-2,-6.7350804E-3,2.2329934E-1,9.397393E-3,-7.895192E-3,6.328309E-1,-2.1597052E-3,-1.03174366E-1,-1.8388478E-1,5.1027793E-2,-1.6828099E-1,-9.7289845E-2,6.25722E-2,1.6504109E-1,6.336182E-1,9.714168E-1,6.712073E-1,6.599797E-1,-2.3233403E-1,-5.7129398E-2,2.1480115E-1,-2.46446E-1,1.064286E-1,3.2400634E-2,2.0893376E-1,3.3493432E-1,7.7529326E-2,4.2510802E-1,6.5549576E-1,8.058458E-3,-1.793508E-1,4.7466514E-1,7.341405E-2,3.3321065E-1,9.101748E-2,-1.6902206E-2,-7.78866E-2,-2.4564233E-1,3.0643651E-3,7.031488E-2,-4.0789142E-2,1.5555367E-1,2.71642E-1,3.1884E-2,2.1248989E-2,-3.1860292E-2,-1.3788827E-1,-1.9458795E-1,9.101267E-2,2.592154E-1,-7.858791E-3,-2.012425E-1,-7.3715165E-2,-1.6043814E-1,2.9474428E-2,3.184226E-1,3.5274666E-2,2.1538912E-1,-1.0612798E-1,8.9138764E-1,2.7943066E-1,9.9944973E-1,1.4159138E-2,3.0558482E-3,6.8891615E-1,2.0490041E-1,3.9445307E-2,-4.3725534E-3,-1.4988616E-2,-1.7768283E-1,2.4449911E-2,-4.4371072E-2,2.9928192E-1,-1.3845883E-2,2.9803484E-3,-2.7230324E-3,9.243723E-3,1.5103623E-2,3.8588967E-3,2.2517493E-2,1.2174192E-2,8.562169E-3,-6.921967E-3,2.2684803E-2,1.7511828E-3,3.9738204E-2,3.0168075E-2,6.2825466E-3,-7.1757804E-3,-9.734722E-3,-6.7126513E-3,7.5825513E-3,3.0544851E-2,7.51127E-3,-7.82269E-3,1.1198264E-2,2.2115402E-2,-4.721762E-3,1.1220922E-2,-6.050449E-3,3.4431324E-3,-1.3360502E-2,-9.988428E-4,6.3008815E-4,3.8916718E-3,-3.8821963E-3,-1.4753864E-4,8.025809E-3,2.2760273E-3,8.438707E-3,1.5309927E-2,-6.0526244E-3,4.305222E-3,-1.0373733E-2,-2.6133172E-3,-1.2884647E-2,-8.394074E-3,-3.1966686E-3,1.3099104E-2,6.23461E-3,1.681841E-2,-2.4594855E-3,2.4990386E-3,1.2579495E-2,-1.03830835E-2,7.287007E-3,-4.4664335E-3,-9.846714E-3,-3.609356E-3,2.4902864E-4,5.493355E-3,-7.520281E-4,4.222924E-2,3.7017204E-3,-2.1585225E-5,1.4596884E-2,3.97504E-3,-7.905941E-3,-2.4275722E-3,1.3379184E-2,5.942155E-2,3.0938555E-2,6.6420706E-3,4.2777117E-2,6.259732E-2,3.5569947E-2,1.2097206E-2,1.2969573E-2,1.0356813E-3,-2.0735532E-3,-9.476271E-3,-7.483831E-3,4.2772964E-3,-1.0611201E-2,8.826894E-3,1.6325949E-2,4.7542676E-3],"categories":[],"categories_nodes":[],"categories_segments":[],"categories_sizes":[],"default_left":[0,0,0,0,0,0,0,0,0,0,0,0,0,0,0,0,0,0,0,0,0,0,0,0,0,0,0,0,0,0,0,0,0,0,0,0,0,0,0,0,0,0,0,0,0,0,0,0,0,0,0,0,0,0,0,0,0,0,0,0,0,0,0,0,0,0,0,0,0,0,0,0,0,0,0,0,0,0,0,0,0,0,0,0,0,0,0,0,0,0,0,0,0,0,0,0,0,0,0,0,0,0,0,0,0,0,0,0,0,0,0,0,0,0,0,0,0,0,0,0,0,0,0,0,0,0,0,0,0,0,0,0,0,0,0,0,0,0,0,0,0,0,0,0,0,0,0,0,0,0,0,0,0,0,0,0,0,0,0,0,0,0,0,0,0,0,0,0,0,0,0,0,0,0,0,0,0,0,0,0,0,0,0,0,0,0,0,0,0,0,0,0,0,0,0,0,0],"id":3,"left_children":[1,3,5,7,9,11,13,15,17,19,21,23,25,27,29,31,33,35,37,39,41,43,45,47,49,51,53,55,-1,57,59,61,63,65,67,69,71,73,75,77,79,-1,81,-1,-1,83,-1,85,87,89,91,93,95,97,99,101,103,105,107,109,111,113,115,-1,117,119,121,123,125,127,129,131,133,135,137,-1,139,141,-1,143,145,147,149,-1,-1,151,153,155,157,159,161,163,165,167,169,171,173,175,177,179,181,183,-1,-1,185,187,-1,-1,-1,189,191,193,195,-1,-1,-1,-1,-1,-1,-1,-1,-1,-1,-1,-1,-1,-1,-1,-1,-1,-1,-1,-1,-1,-1,-1,-1,-1,-1,-1,-1,-1,-1,-1,-1,-1,-1,-1,-1,-1,-1,-1,-1,-1,-1,-1,-1,-1,-1,-1,-1,-1,-1,-1,-1,-1,-1,-1,-1,-1,-1,-1,-1,-1,-1,-1,-1,-1,-1,-1,-1,-1,-1,-1,-1,-1,-1,-1,-1,-1,-1,-1,-1,-1,-1,-1,-1],"loss_changes":[1.3320583E2,2.992054E1,4.671805E1,2.1442005E1,1.992109E1,2.8410282E1,1.4371265E1,6.875061E0,5.3304415E0,1.8346375E0,1.4628601E0,3.1852669E1,1.9977688E1,1.6397171E0,1.231991E0,1.8223357E0,3.7437363E0,2.7728782E0,5.54025E0,4.3403518E-1,3.1050825E-1,1.7914927E-1,5.1208496E-1,5.7733383E0,2.632064E1,2.5737314E0,1.5355324E1,9.0470886E-1,0E0,2.642291E0,9.153569E-1,9.597349E-1,1.2070284E0,8.578501E-1,1.7647896E0,1.2117054E0,9.910716E-1,1.0951314E0,2.2384095E-1,2.032845E-1,3.948838E-2,0E0,4.944527E-2,0E0,0E0,8.276367E-2,0E0,4.2957077E0,5.3814697E0,2.6911545E1,2.2574825E0,1.741802E0,1.3017759E0,3.1903148E0,8.972092E0,5.079956E-1,3.0362225E-1,5.4241323E-1,2.2637874E-2,2.2070697E-1,6.482363E-1,1.3774347E-1,2.4986917E-1,0E0,1.2406583E0,5.869646E-1,3.8801417E-1,7.8703594E-1,1.3762665E-1,8.557594E-1,6.8660736E-2,3.0340028E-1,4.1194546E-1,8.0673504E-1,6.891614E-1,0E0,4.6302054E-2,1.01737976E-1,0E0,2.056595E-3,8.138037E-3,3.3777952E-4,1.6429424E-3,0E0,0E0,6.007697E0,6.9482384E0,2.9144516E0,1.8446306E0,4.9814186E0,4.095101E0,1.6219234E0,6.6404736E-1,4.528036E-1,1.4319903E-1,3.1709054E0,2.3669076E-1,2.0155926E0,1.0308087E-1,1.0429211E1,2.1065218E0,3.4601593E-1,0E0,0E0,1.3940525E-1,3.47732E-2,0E0,0E0,0E0,6.6580772E-3,1.6174234E-1,3.341073E-1,9.131086E-2,0E0,0E0,0E0,0E0,0E0,0E0,0E0,0E0,0E0,0E0,0E0,0E0,0E0,0E0,0E0,0E0,0E0,0E0,0E0,0E0,0E0,0E0,0E0,0E0,0E0,0E0,0E0,0E0,0E0,0E0,0E0,0E0,0E0,0E0,0E0,0E0,0E0,0E0,0E0,0E0,0E0,0E0,0E0,0E0,0E0,0E0,0E0,0E0,0E0,0E0,0E0,0E0,0E0,0E0,0E0,0E0,0E0,0E0,0E0,0E0,0E0,0E0,0E0,0E0,0E0,0E0,0E0,0E0,0E0,0E0,0E0,0E0,0E0,0E0,0E0,0E0,0E0,0E0,0E0,0E0,0E0,0E0,0E0,0E0],"parents":[2147483647,0,0,1,1,2,2,3,3,4,4,5,5,6,6,7,7,8,8,9,9,10,10,11,11,12,12,13,13,14,14,15,15,16,16,17,17,18,18,19,19,20,20,21,21,22,22,23,23,24,24,25,25,26,26,27,27,29,29,30,30,31,31,32,32,33,33,34,34,35,35,36,36,37,37,38,38,39,39,40,40,42,42,45,45,47,47,48,48,49,49,50,50,51,51,52,52,53,53,54,54,55,55,56,56,57,57,58,58,59,59,60,60,61,61,62,62,64,64,65,65,66,66,67,67,68,68,69,69,70,70,71,71,72,72,73,73,74,74,76,76,77,77,79,79,80,80,81,81,82,82,85,85,86,86,87,87,88,88,89,89,90,90,91,91,92,92,93,93,94,94,95,95,96,96,97,97,98,98,99,99,100,100,101,101,104,104,105,105,109,109,110,110,111,111,112,112],"right_children":[2,4,6,8,10,12,14,16,18,20,22,24,26,28,30,32,34,36,38,40,42,44,46,48,50,52,54,56,-1,58,60,62,64,66,68,70,72,74,76,78,80,-1,82,-1,-1,84,-1,86,88,90,92,94,96,98,100,102,104,106,108,110,112,114,116,-1,118,120,122,124,126,128,130,132,134,136,138,-1,140,142,-1,144,146,148,150,-1,-1,152,154,156,158,160,162,164,166,168,170,172,174,176,178,180,182,184,-1,-1,186,188,-1,-1,-1,190,192,194,196,-1,-1,-1,-1,-1,-1,-1,-1,-1,-1,-1,-1,-1,-1,-1,-1,-1,-1,-1,-1,-1,-1,-1,-1,-1,-1,-1,-1,-1,-1,-1,-1,-1,-1,-1,-1,-1,-1,-1,-1,-1,-1,-1,-1,-1,-1,-1,-1,-1,-1,-1,-1,-1,-1,-1,-1,-1,-1,-1,-1,-1,-1,-1,-1,-1,-1,-1,-1,-1,-1,-1,-1,-1,-1,-1,-1,-1,-1,-1,-1,-1,-1,-1,-1],"split_conditions":[2.3053148E-1,7.562721E1,4.530858E0,6.155428E1,1.0726774E2,8.576898E1,6.0103817E1,4.259878E0,6.653683E1,8.072738E1,3.2550816E1,4.064879E0,8.093818E1,2.6518658E-1,6.0371677E1,9.1576965E1,3.421498E1,-1.9609338E-1,9.717646E-1,4.075639E0,1.0715894E2,8.620347E1,3.903697E1,1.0522075E2,4.5737804E1,7.858332E1,1.0952847E2,9.020757E1,-1.2074E-2,3.7416508E1,9.5213165E1,2.2695458E-1,-8.785981E-1,4.5103135E0,4.4538636E0,1.0691683E2,9.492826E-1,3.9900166E1,4.02691E0,1.0454941E0,9.98867E1,-6.7350804E-3,2.1937984E1,9.397393E-3,-7.895192E-3,2.2516546E-1,-2.1597052E-3,6.898787E-2,1.8051147E-2,1.0603317E2,4.352637E0,1.182261E0,1.0290382E0,3.866446E0,9.79286E-1,-4.3346566E-1,1.0236753E2,3.3253166E1,8.507052E1,-4.2678776E-1,3.081834E1,-4.8720017E-1,-5.992608E-1,3.2400634E-2,3.3790646E1,1.0457866E2,-4.5179063E-1,1.0540088E2,1.0368613E2,6.277599E1,3.7840996E1,3.932753E1,4.322048E0,4.222521E0,-2.7111542E-1,-1.6902206E-2,1.0425367E0,1.0624285E2,3.0643651E-3,8.283757E1,4.4118266E0,1.0952847E2,8.6501434E1,3.1884E-2,2.1248989E-2,7.733156E1,7.730994E1,1.0709153E2,2.6518658E-1,4.183116E0,4.3143897E0,2.324545E-1,6.1329346E1,8.884463E1,7.15972E1,2.5395173E-1,8.8229805E1,8.66245E1,9.270492E-1,2.4339215E-1,8.2475624E1,1.2144983E0,1.4159138E-2,3.0558482E-3,5.9887054E1,9.4005844E1,3.9445307E-2,-4.3725534E-3,-1.4988616E-2,4.5412893E0,6.269222E1,1.05050446E2,1.1178561E2,-1.3845883E-2,2.9803484E-3,-2.7230324E-3,9.243723E-3,1.5103623E-2,3.8588967E-3,2.2517493E-2,1.2174192E-2,8.562169E-3,-6.921967E-3,2.2684803E-2,1.7511828E-3,3.9738204E-2,3.0168075E-2,6.2825466E-3,-7.1757804E-3,-9.734722E-3,-6.7126513E-3,7.5825513E-3,3.0544851E-2,7.51127E-3,-7.82269E-3,1.1198264E-2,2.2115402E-2,-4.721762E-3,1.1220922E-2,-6.050449E-3,3.4431324E-3,-1.3360502E-2,-9.988428E-4,6.3008815E-4,3.8916718E-3,-3.8821963E-3,-1.4753864E-4,8.025809E-3,2.2760273E-3,8.438707E-3,1.5309927E-2,-6.0526244E-3,4.305222E-3,-1.0373733E-2,-2.6133172E-3,-1.2884647E-2,-8.394074E-3,-3.1966686E-3,1.3099104E-2,6.23461E-3,1.681841E-2,-2.4594855E-3,2.4990386E-3,1.2579495E-2,-1.03830835E-2,7.287007E-3,-4.4664335E-3,-9.846714E-3,-3.609356E-3,2.4902864E-4,5.493355E-3,-7.520281E-4,4.222924E-2,3.7017204E-3,-2.1585225E-5,1.4596884E-2,3.97504E-3,-7.905941E-3,-2.4275722E-3,1.3379184E-2,5.942155E-2,3.0938555E-2,6.6420706E-3,4.2777117E-2,6.259732E-2,3.5569947E-2,1.2097206E-2,1.2969573E-2,1.0356813E-3,-2.0735532E-3,-9.476271E-3,-7.483831E-3,4.2772964E-3,-1.0611201E-2,8.826894E-3,1.6325949E-2,4.7542676E-3],"split_indices":[10,7,5,7,2,9,7,5,7,9,1,5,0,10,7,0,1,9,8,5,1,0,1,2,1,7,1,0,0,1,0,10,9,5,5,2,8,1,5,8,0,0,2,0,0,10,0,9,9,2,5,8,8,5,8,9,2,1,0,9,1,9,9,0,1,2,9,2,2,7,1,1,5,5,9,0,8,2,0,0,5,1,0,0,0,0,9,2,10,5,5,10,9,9,0,10,7,7,8,10,7,8,0,0,7,0,0,0,0,5,7,2,1,0,0,0,0,0,0,0,0,0,0,0,0,0,0,0,0,0,0,0,0,0,0,0,0,0,0,0,0,0,0,0,0,0,0,0,0,0,0,0,0,0,0,0,0,0,0,0,0,0,0,0,0,0,0,0,0,0,0,0,0,0,0,0,0,0,0,0,0,0,0,0,0,0,0,0,0,0,0,0,0,0,0,0,0],"split_type":[0,0,0,0,0,0,0,0,0,0,0,0,0,0,0,0,0,0,0,0,0,0,0,0,0,0,0,0,0,0,0,0,0,0,0,0,0,0,0,0,0,0,0,0,0,0,0,0,0,0,0,0,0,0,0,0,0,0,0,0,0,0,0,0,0,0,0,0,0,0,0,0,0,0,0,0,0,0,0,0,0,0,0,0,0,0,0,0,0,0,0,0,0,0,0,0,0,0,0,0,0,0,0,0,0,0,0,0,0,0,0,0,0,0,0,0,0,0,0,0,0,0,0,0,0,0,0,0,0,0,0,0,0,0,0,0,0,0,0,0,0,0,0,0,0,0,0,0,0,0,0,0,0,0,0,0,0,0,0,0,0,0,0,0,0,0,0,0,0,0,0,0,0,0,0,0,0,0,0,0,0,0,0,0,0,0,0,0,0,0,0,0,0,0,0,0,0],"sum_hessian":[8.476E3,1.126E3,7.35E3,7.08E2,4.18E2,7.214E3,1.36E2,3.75E2,3.33E2,6.3E1,3.55E2,6.48E3,7.34E2,7.2E1,6.4E1,1.38E2,2.37E2,2.11E2,1.22E2,3.4E1,2.9E1,4E0,3.51E2,3.558E3,2.922E3,4.03E2,3.31E2,7.1E1,1E0,1.5E1,4.9E1,3E1,1.08E2,8.2E1,1.55E2,1.82E2,2.9E1,1.01E2,2.1E1,2.3E1,1.1E1,2E0,2.7E1,2E0,2E0,3.5E2,1E0,1.736E3,1.822E3,2.194E3,7.28E2,2.16E2,1.87E2,2.31E2,1E2,4E1,3.1E1,1.1E1,4E0,2.1E1,2.8E1,1.2E1,1.8E1,6E0,1.02E2,6.5E1,1.7E1,7.1E1,8.4E1,4.6E1,1.36E2,8E0,2.1E1,7.5E1,2.6E1,1.6E1,5E0,2.1E1,2E0,6E0,5E0,1.3E1,1.4E1,3.4E2,1E1,5.69E2,1.167E3,1.754E3,6.8E1,4.83E2,1.711E3,5.39E2,1.89E2,1.44E2,7.2E1,1.7E1,1.7E2,1.95E2,3.6E1,5.7E1,4.3E1,3.8E1,2E0,1E0,3E1,3E0,8E0,2E0,2E0,8E0,1.3E1,7E0,2.1E1,1.1E1,1E0,6E0,1.2E1,5.9E1,4.3E1,2.7E1,3.8E1,1.2E1,5E0,6.6E1,5E0,1.9E1,6.5E1,2.6E1,2E1,9.9E1,3.7E1,3E0,5E0,1.6E1,5E0,3.9E1,3.6E1,1.1E1,1.5E1,4E0,1E0,1.9E1,2E0,1E0,5E0,2E0,3E0,1.2E1,1E0,5E0,9E0,3.24E2,2.45E2,6.43E2,5.24E2,5.19E2,1.235E3,3.6E1,3.2E1,1.77E2,3.06E2,9.98E2,7.13E2,7E0,5.32E2,1.2E1,1.77E2,1.01E2,4.3E1,5.6E1,1.6E1,1.1E1,6E0,8.1E1,8.9E1,1.24E2,7.1E1,1.8E1,1.8E1,1.9E1,3.8E1,1.2E1,3.1E1,2.7E1,1.1E1,2.8E1,2E0,2E0,1E0,1E0,7E0,3E0,1E1,4E0,3E0,1.8E1,3E0],"tree_param":{"num_deleted":"0","num_feature":"11","num_nodes":"197","size_leaf_vector":"1"}},{"base_weights":[2.2705855E-4,3.0452967E-1,-4.642636E-2,5.2878815E-1,1.5413123E-1,-5.6881983E-2,5.0454986E-1,-1.164036E-2,5.631486E-1,3.4080684E-1,-7.957032E-2,1.01137765E-1,-7.696496E-2,7.93709E-1,1.7203966E-1,-1.9641727E-1,2.5109696E-1,3.4156874E-1,5.958503E-1,1.12465456E-1,4.143806E-1,-1.295945E-1,1.4653045E-1,-7.480147E-2,2.935516E-1,-1.388341E-1,-3.557516E-3,8.112728E-1,-1.177215E-2,-2.6751645E-2,3.1399012E-1,-1.27981175E-2,-4.4590905E-2,3.4188434E-2,1.4960238E-1,3.689367E-1,-5.6645474E-3,3.009606E-2,1.9164883E-2,2.2037616E-1,-2.5819256E-3,3.1556857E-1,5.1810175E-1,-1.4954206E-1,1.8889734E-1,2.0570768E-1,-1.0887916E-1,-1.4279211E-2,-4.2783584E-2,7.4073344E-1,1.1904492E-1,-1.779206E-1,-7.728079E-2,2.2170252E-1,-4.0205553E-2,9.257614E-1,6.3923204E-1,2.33945E-2,-6.2400963E-2,6.6010475E-1,1.8381298E-1,1.4322321E-2,-3.8814049E-3,8.13296E-3,3.0282268E-3,3.1641307E-1,2.1820325E-2,4.9756628E-2,3.2108933E-1,1.6385223E-1,-6.6142574E-2,1.2600634E-1,3.4943998E-1,3.9180074E-2,5.5146986E-1,-1.7070828E-1,-4.3147385E-2,5.080407E-2,3.8756987E-1,-1.6680427E-3,2.1189927E-1,-7.414439E-3,-2.8401315E-3,-2.1073575E-1,1.2553496E-2,1.0357519E0,4.2107102E-1,1.4975967E-1,-1.7544778E-1,-1.4683285E-1,-3.383547E-1,1.9802582E-3,-1.3513069E-1,2.817214E-1,-2.0630735E-1,2.7282566E-3,-1.55222E-1,1.8684924E-2,9.5951116E-1,2.9794516E-3,6.5600795E-1,-1.8923455E-1,3.6624294E-2,1.2537255E-2,3.6555078E-2,-3.3719562E-2,3.000785E-1,1.4344559E-3,-3.6028176E-4,8.501658E-3,1.678939E-2,-9.524943E-3,6.3262344E-3,8.551081E-3,1.9948477E-2,1.1144781E-2,1.2401846E-3,-1.2492731E-2,4.9939746E-4,1.2045062E-2,1.3365656E-3,2.468486E-2,1.43927215E-2,2.7639482E-2,-7.916051E-3,2.8174043E-2,-6.8407767E-3,1.595438E-2,-8.873612E-3,-1.2026197E-2,6.8565656E-4,-1.7367948E-3,5.681002E-3,2.1236679E-2,5.0437883E-3,1.13387555E-2,5.8305524E-3,1.7800332E-4,-3.08011E-4,-1.15408255E-2,3.3037935E-3,1.9004431E-3,-1.6956164E-2,-5.1428266E-3,5.6265768E-2,2.6678152E-3,4.5718335E-2,-2.44431E-3,7.988526E-3,-3.8374122E-3,-1.6778108E-2,-1.8488184E-3,-7.691633E-3,-1.710812E-2,1.0425265E-2,-5.4349503E-3,6.1596576E-3,2.8180708E-3,-9.754341E-3,7.3440457E-3,1.7685007E-2,-1.3394981E-2,-1.2196101E-3,1.668488E-2,-4.6101428E-4,-8.575234E-3,7.076545E-4,4.0975254E-2,5.9728272E-2,3.3852775E-2,1.1693967E-2,-1.4636181E-2,-6.110668E-3,1.1257375E-2,-3.1947772E-4,-7.6708845E-3,2.8298092E-3,1.9275986E-2,9.231472E-3],"categories":[],"categories_nodes":[],"categories_segments":[],"categories_sizes":[],"default_left":[0,0,0,0,0,0,0,0,0,0,0,0,0,0,0,0,0,0,0,0,0,0,0,0,0,0,0,0,0,0,0,0,0,0,0,0,0,0,0,0,0,0,0,0,0,0,0,0,0,0,0,0,0,0,0,0,0,0,0,0,0,0,0,0,0,0,0,0,0,0,0,0,0,0,0,0,0,0,0,0,0,0,0,0,0,0,0,0,0,0,0,0,0,0,0,0,0,0,0,0,0,0,0,0,0,0,0,0,0,0,0,0,0,0,0,0,0,0,0,0,0,0,0,0,0,0,0,0,0,0,0,0,0,0,0,0,0,0,0,0,0,0,0,0,0,0,0,0,0,0,0,0,0,0,0,0,0,0,0,0,0,0,0,0,0,0,0,0,0,0,0,0,0,0,0,0,0,0,0],"id":4,"left_children":[1,3,5,7,9,11,13,15,17,19,21,23,25,27,29,31,33,35,37,39,41,43,45,47,49,51,53,55,-1,57,59,-1,61,-1,63,65,-1,-1,-1,67,69,71,73,75,77,79,81,-1,83,85,87,89,91,93,95,97,99,-1,101,103,105,107,-1,-1,-1,109,-1,111,113,115,117,119,121,123,125,127,129,131,133,-1,135,-1,137,139,141,143,145,147,149,151,153,155,157,159,161,163,165,-1,167,-1,169,171,173,-1,-1,175,177,-1,-1,-1,-1,-1,-1,-1,-1,-1,-1,-1,-1,-1,-1,-1,-1,-1,-1,-1,-1,-1,-1,-1,-1,-1,-1,-1,-1,-1,-1,-1,-1,-1,-1,-1,-1,-1,-1,-1,-1,-1,-1,-1,-1,-1,-1,-1,-1,-1,-1,-1,-1,-1,-1,-1,-1,-1,-1,-1,-1,-1,-1,-1,-1,-1,-1,-1,-1,-1,-1,-1,-1],"loss_changes":[1.20360054E2,3.793009E1,4.2376335E1,8.399925E0,2.9518549E1,2.2904634E1,1.3035782E1,1.408658E0,2.8760376E0,6.270172E0,3.423452E0,2.7578415E1,2.9075184E1,1.51054E0,1.8426033E0,1.4227521E-1,4.2467254E-1,7.5136566E-1,2.4545288E-1,1.1551495E0,2.7471886E0,1.5974731E0,8.536911E-1,2.8627782E0,3.0267906E1,8.34436E0,2.4188797E1,8.263893E-1,0E0,5.2293867E-1,1.5908003E0,0E0,1.278978E-2,0E0,2.9366761E-3,5.327797E-2,0E0,0E0,0E0,8.0883837E-1,4.9745604E-1,9.062376E-1,2.1677513E0,5.173435E-1,3.9183998E-1,7.367861E-2,4.5547366E-2,0E0,3.4507127E0,9.843269E0,2.5679946E0,1.05438385E1,6.194932E0,1.0590477E1,1.2444422E1,4.053421E-1,2.720785E-1,0E0,3.460433E-1,1.07311726E-1,7.435731E-1,1.1345865E-3,0E0,0E0,0E0,3.9331198E-2,0E0,3.7453777E-1,2.8238678E-1,1.01200014E-1,4.7802272E-1,2.6730904E-1,9.6840763E-1,1.1019027E0,1.1352692E0,6.993432E-1,4.522157E-1,5.767945E-2,2.1082282E-2,0E0,3.592539E-2,0E0,1.0692767E-4,5.2664137E-1,2.5194666E0,5.8264885E0,9.746384E0,5.1490736E-1,4.0093303E-1,1.3638496E0,7.8764343E-1,7.673787E0,8.977755E0,3.4420795E0,5.648978E-1,7.2637234E0,1.891573E0,0E0,2.7158737E-1,0E0,1.17079735E-1,4.74568E-2,1.3118431E-1,0E0,0E0,1.2759973E-1,1.1623967E-1,0E0,0E0,0E0,0E0,0E0,0E0,0E0,0E0,0E0,0E0,0E0,0E0,0E0,0E0,0E0,0E0,0E0,0E0,0E0,0E0,0E0,0E0,0E0,0E0,0E0,0E0,0E0,0E0,0E0,0E0,0E0,0E0,0E0,0E0,0E0,0E0,0E0,0E0,0E0,0E0,0E0,0E0,0E0,0E0,0E0,0E0,0E0,0E0,0E0,0E0,0E0,0E0,0E0,0E0,0E0,0E0,0E0,0E0,0E0,0E0,0E0,0E0,0E0,0E0,0E0,0E0,0E0,0E0,0E0,0E0,0E0,0E0],"parents":[2147483647,0,0,1,1,2,2,3,3,4,4,5,5,6,6,7,7,8,8,9,9,10,10,11,11,12,12,13,13,14,14,15,15,16,16,17,17,18,18,19,19,20,20,21,21,22,22,23,23,24,24,25,25,26,26,27,27,29,29,30,30,32,32,34,34,35,35,39,39,40,40,41,41,42,42,43,43,44,44,45,45,46,46,48,48,49,49,50,50,51,51,52,52,53,53,54,54,55,55,56,56,58,58,59,59,60,60,61,61,65,65,67,67,68,68,69,69,70,70,71,71,72,72,73,73,74,74,75,75,76,76,77,77,78,78,80,80,82,82,83,83,84,84,85,85,86,86,87,87,88,88,89,89,90,90,91,91,92,92,93,93,94,94,95,95,96,96,98,98,100,100,101,101,102,102,105,105,106,106],"right_children":[2,4,6,8,10,12,14,16,18,20,22,24,26,28,30,32,34,36,38,40,42,44,46,48,50,52,54,56,-1,58,60,-1,62,-1,64,66,-1,-1,-1,68,70,72,74,76,78,80,82,-1,84,86,88,90,92,94,96,98,100,-1,102,104,106,108,-1,-1,-1,110,-1,112,114,116,118,120,122,124,126,128,130,132,134,-1,136,-1,138,140,142,144,146,148,150,152,154,156,158,160,162,164,166,-1,168,-1,170,172,174,-1,-1,176,178,-1,-1,-1,-1,-1,-1,-1,-1,-1,-1,-1,-1,-1,-1,-1,-1,-1,-1,-1,-1,-1,-1,-1,-1,-1,-1,-1,-1,-1,-1,-1,-1,-1,-1,-1,-1,-1,-1,-1,-1,-1,-1,-1,-1,-1,-1,-1,-1,-1,-1,-1,-1,-1,-1,-1,-1,-1,-1,-1,-1,-1,-1,-1,-1,-1,-1,-1,-1,-1,-1,-1,-1],"split_conditions":[2.3053148E-1,8.292759E1,4.530858E0,4.0837336E0,6.155428E1,3.866446E0,6.0103817E1,7.894399E1,6.9013794E1,4.2022305E0,4.2468826E1,8.048909E1,4.064879E0,2.6518658E-1,9.997719E1,3.9018936E0,8.0985504E1,8.2169846E1,2.2837451E-1,3.3168415E1,3.543761E1,9.198333E1,1.1060207E2,7.894399E1,8.1107796E1,9.194235E1,1.0480095E2,9.020757E1,-1.177215E-2,1.0162556E2,3.7416508E1,-1.27981175E-2,3.7788948E1,3.4188434E-2,1.0920866E2,3.754832E1,-5.6645474E-3,3.009606E-2,1.9164883E-2,4.1065683E0,1.02118E2,3.081834E1,8.999192E1,9.2167725E1,3.4523716E1,9.211764E-1,1.1335491E2,-1.4279211E-2,6.500869E1,8.66245E1,2.741842E-1,9.107227E1,4.0843906E1,4.5737804E1,4.5737804E1,3.3582314E1,1.0177282E2,2.33945E-2,9.020757E1,3.3253166E1,9.5213165E1,7.7625916E1,-3.8814049E-3,8.13296E-3,3.0282268E-3,6.7394554E1,2.1820325E-2,5.9293236E1,9.580811E-1,4.122876E0,3.463771E1,4.501714E0,1.0301708E2,1.0237708E2,1.0514062E2,6.180421E1,1.0480095E2,2.2734126E-1,1.0102744E2,-1.6680427E-3,9.4669975E1,-7.414439E-3,4.4777994E0,9.001183E1,9.7259445E1,1.0824142E2,1.0979554E2,6.2348057E1,9.5995766E1,1.0528748E2,7.77333E1,7.733156E1,3.9354446E0,4.187285E0,4.3732085E0,8.2169846E1,4.4402366E0,1.8684924E-2,1.2144983E0,2.9794516E-3,5.9887054E1,2.4302517E-1,9.129715E1,1.2537255E-2,3.6555078E-2,1.08434586E2,6.49129E1,1.4344559E-3,-3.6028176E-4,8.501658E-3,1.678939E-2,-9.524943E-3,6.3262344E-3,8.551081E-3,1.9948477E-2,1.1144781E-2,1.2401846E-3,-1.2492731E-2,4.9939746E-4,1.2045062E-2,1.3365656E-3,2.468486E-2,1.43927215E-2,2.7639482E-2,-7.916051E-3,2.8174043E-2,-6.8407767E-3,1.595438E-2,-8.873612E-3,-1.2026197E-2,6.8565656E-4,-1.7367948E-3,5.681002E-3,2.1236679E-2,5.0437883E-3,1.13387555E-2,5.8305524E-3,1.7800332E-4,-3.08011E-4,-1.15408255E-2,3.3037935E-3,1.9004431E-3,-1.6956164E-2,-5.1428266E-3,5.6265768E-2,2.6678152E-3,4.5718335E-2,-2.44431E-3,7.988526E-3,-3.8374122E-3,-1.6778108E-2,-1.8488184E-3,-7.691633E-3,-1.710812E-2,1.0425265E-2,-5.4349503E-3,6.1596576E-3,2.8180708E-3,-9.754341E-3,7.3440457E-3,1.7685007E-2,-1.3394981E-2,-1.2196101E-3,1.668488E-2,-4.6101428E-4,-8.575234E-3,7.076545E-4,4.0975254E-2,5.9728272E-2,3.3852775E-2,1.1693967E-2,-1.4636181E-2,-6.110668E-3,1.1257375E-2,-3.1947772E-4,-7.6708845E-3,2.8298092E-3,1.9275986E-2,9.231472E-3],"split_indices":[10,4,5,5,7,5,7,4,7,5,1,0,5,10,4,5,4,4,10,1,1,4,1,4,4,4,6,0,0,6,1,0,1,0,1,1,0,0,0,5,6,1,4,0,1,8,6,0,7,7,10,4,1,1,1,1,6,0,0,1,0,0,0,0,0,7,0,7,8,5,1,5,6,6,6,7,6,10,0,0,0,0,5,4,4,1,1,7,4,6,7,0,5,5,5,4,5,0,8,0,7,10,0,0,0,6,7,0,0,0,0,0,0,0,0,0,0,0,0,0,0,0,0,0,0,0,0,0,0,0,0,0,0,0,0,0,0,0,0,0,0,0,0,0,0,0,0,0,0,0,0,0,0,0,0,0,0,0,0,0,0,0,0,0,0,0,0,0,0,0,0,0,0,0,0,0,0,0,0],"split_type":[0,0,0,0,0,0,0,0,0,0,0,0,0,0,0,0,0,0,0,0,0,0,0,0,0,0,0,0,0,0,0,0,0,0,0,0,0,0,0,0,0,0,0,0,0,0,0,0,0,0,0,0,0,0,0,0,0,0,0,0,0,0,0,0,0,0,0,0,0,0,0,0,0,0,0,0,0,0,0,0,0,0,0,0,0,0,0,0,0,0,0,0,0,0,0,0,0,0,0,0,0,0,0,0,0,0,0,0,0,0,0,0,0,0,0,0,0,0,0,0,0,0,0,0,0,0,0,0,0,0,0,0,0,0,0,0,0,0,0,0,0,0,0,0,0,0,0,0,0,0,0,0,0,0,0,0,0,0,0,0,0,0,0,0,0,0,0,0,0,0,0,0,0,0,0,0,0,0,0],"sum_hessian":[8.476E3,1.126E3,7.35E3,4.51E2,6.75E2,7.214E3,1.36E2,2.7E1,4.24E2,3.75E2,3E2,8.13E2,6.401E3,7.2E1,6.4E1,1.6E1,1.1E1,5.6E1,3.68E2,9.2E1,2.83E2,2.46E2,5.4E1,4.25E2,3.88E2,3.473E3,2.928E3,7.1E1,1E0,2.7E1,3.7E1,1.1E1,5E0,1E0,1E1,5.3E1,3E0,3.56E2,1.2E1,4.7E1,4.5E1,1.47E2,1.36E2,2.32E2,1.4E1,4.4E1,1E1,5.5E1,3.7E2,1.08E2,2.8E2,2.123E3,1.35E3,4.09E2,2.519E3,4E1,3.1E1,1E0,2.6E1,9E0,2.8E1,2E0,3E0,8E0,2E0,3.3E1,2E1,1.8E1,2.9E1,1.2E1,3.3E1,2.3E1,1.24E2,9E0,1.27E2,1.93E2,3.9E1,9E0,5E0,1E0,4.3E1,7E0,3E0,9.1E1,2.79E2,5.5E1,5.3E1,2.54E2,2.6E1,1.78E3,3.43E2,5.7E2,7.8E2,3.59E2,5E1,1.835E3,6.84E2,3E0,3.7E1,1E0,3E1,1.1E1,1.5E1,2E0,7E0,1E1,1.8E1,1E0,1E0,5E0,2.8E1,4E0,1.4E1,1.1E1,1.8E1,8E0,4E0,9E0,2.4E1,1E1,1.3E1,3.5E1,8.9E1,2E0,7E0,1.25E2,2E0,2E0,1.91E2,8E0,3.1E1,4E0,5E0,4E0,1E0,3.6E1,7E0,1E0,2E0,8.5E1,6E0,2.61E2,1.8E1,4E0,5.1E1,3.1E1,2.2E1,1.2E1,2.42E2,1.7E1,9E0,1.07E2,1.673E3,3.41E2,2E0,2.98E2,2.72E2,1.86E2,5.94E2,1.26E2,2.33E2,3.7E1,1.3E1,6.3E1,1.772E3,6.24E2,6E1,2.6E1,1.1E1,2.8E1,2E0,3E0,8E0,2E0,1.3E1,4E0,6E0,9E0,9E0],"tree_param":{"num_deleted":"0","num_feature":"11","num_nodes":"179","size_leaf_vector":"1"}},{"base_weights":[2.8168442E-4,2.8954595E-1,-4.4066176E-2,5.026152E-1,1.466512E-1,-5.4031894E-2,4.8109236E-1,-1.4725502E-2,5.394279E-1,3.2408357E-1,-7.5479105E-2,9.613846E-2,-7.311728E-2,7.5616246E-1,1.6476607E-1,-9.815234E-2,4.3872452E-1,3.763509E-1,5.70238E-1,1.6084968E-1,4.1805592E-1,-1.2300965E-1,1.393486E-1,-7.114959E-2,2.790911E-1,-1.3189887E-1,-3.3732168E-3,7.730413E-1,-1.1477846E-2,-2.4928864E-2,3.0020532E-1,6.0862573E-3,-1.8119572E-1,2.9875034E-2,6.6853436E-3,3.2103863E-1,2.1600088E-2,2.8810287E-2,3.5263672E-1,-3.8892306E-2,2.1618134E-1,2.5623918E-1,5.014709E-1,-1.4208324E-1,1.8146746E-1,1.9576676E-1,-1.0412106E-1,-1.3578E-2,-4.0707182E-2,7.046097E-1,1.13039054E-1,-1.6903222E-1,-7.3421344E-2,4.6081387E-2,-1.5105958E-1,8.823852E-1,6.087869E-1,2.2809638E-2,-5.9644207E-2,6.320088E-1,1.7543843E-1,-1.2211537E-2,-7.701617E-2,3.3472311E-1,8.051976E-3,4.989615E-3,1.8327527E-2,-2.9816693E-1,6.425395E-2,1.1421034E-1,3.0066168E-1,1.3254102E-1,3.3125484E-1,-3.9873242E-2,5.196603E-1,-1.6213638E-1,-4.127352E-2,4.8658308E-2,3.7257147E-1,2.016945E-1,-1.6263418E-3,-7.436774E-3,-2.083667E-2,-1.9078451E-1,1.5375909E-2,8.376225E-1,7.082165E-2,1.4229344E-1,-1.6743892E-1,-1.3949658E-1,-3.214564E-1,1.8825158E-3,-1.2838304E-1,2.3860493E-1,-6.9396617E-3,5.7338696E-2,-1.6345392E-1,8.9779186E-1,6.6530067E-3,2.904965E-3,6.246768E-1,-1.8150175E-1,3.5476703E-2,1.2119347E-2,3.4955796E-2,-3.2473672E-2,2.86575E-1,-5.2502737E-3,6.982138E-4,8.167593E-3,1.728422E-2,2.1692217E-4,-1.6826121E-2,1.2198872E-2,6.7882554E-4,-5.7095024E-3,8.99376E-3,1.9039607E-2,6.8765394E-3,1.1802912E-2,3.9001676E-4,2.3442013E-2,1.0535642E-2,1.2021773E-3,-5.5902274E-3,2.069701E-2,2.9843945E-2,1.542257E-2,-8.432242E-3,-7.0166304E-3,1.5306532E-3,-3.3728515E-3,5.402937E-3,2.0387212E-2,4.9176933E-3,1.078714E-2,5.575467E-3,-2.331523E-3,-1.365304E-4,1.2294861E-3,-1.1005002E-2,2.036562E-3,-1.6152978E-2,1.4163563E-2,5.1184714E-2,5.6497095E-4,3.0043602E-2,5.0883517E-3,1.0902252E-2,-3.6562015E-3,-1.6023092E-2,-8.378616E-3,-5.765572E-3,-1.6255215E-2,1.0077756E-2,-5.1641115E-3,5.852803E-3,3.0116898E-3,-9.248708E-3,5.6381165E-3,1.556089E-2,1.586367E-2,-9.7213965E-4,-6.976127E-3,8.037614E-3,-8.859277E-3,-6.3306506E-4,3.833431E-2,5.6990724E-2,3.2218505E-2,1.1304168E-2,-1.4087326E-2,-5.839083E-3,-2.91633E-3,5.745778E-3,-7.3640496E-3,2.7085324E-3,1.7538786E-2,7.7226013E-3],"categories":[],"categories_nodes":[],"categories_segments":[],"categories_sizes":[],"default_left":[0,0,0,0,0,0,0,0,0,0,0,0,0,0,0,0,0,0,0,0,0,0,0,0,0,0,0,0,0,0,0,0,0,0,0,0,0,0,0,0,0,0,0,0,0,0,0,0,0,0,0,0,0,0,0,0,0,0,0,0,0,0,0,0,0,0,0,0,0,0,0,0,0,0,0,0,0,0,0,0,0,0,0,0,0,0,0,0,0,0,0,0,0,0,0,0,0,0,0,0,0,0,0,0,0,0,0,0,0,0,0,0,0,0,0,0,0,0,0,0,0,0,0,0,0,0,0,0,0,0,0,0,0,0,0,0,0,0,0,0,0,0,0,0,0,0,0,0,0,0,0,0,0,0,0,0,0,0,0,0,0,0,0,0,0,0,0,0,0,0,0,0,0,0,0,0,0,0,0],"id":5,"left_children":[1,3,5,7,9,11,13,15,17,19,21,23,25,27,29,31,33,35,37,39,41,43,45,47,49,51,53,55,-1,57,59,-1,61,-1,-1,63,-1,-1,65,67,69,71,73,75,77,79,81,-1,83,85,87,89,91,93,95,97,99,-1,101,103,105,-1,107,109,-1,-1,-1,111,113,115,117,119,121,123,125,127,129,131,133,135,-1,-1,137,139,141,143,145,147,149,151,153,155,157,159,161,163,165,167,-1,-1,169,171,173,-1,-1,175,177,-1,-1,-1,-1,-1,-1,-1,-1,-1,-1,-1,-1,-1,-1,-1,-1,-1,-1,-1,-1,-1,-1,-1,-1,-1,-1,-1,-1,-1,-1,-1,-1,-1,-1,-1,-1,-1,-1,-1,-1,-1,-1,-1,-1,-1,-1,-1,-1,-1,-1,-1,-1,-1,-1,-1,-1,-1,-1,-1,-1,-1,-1,-1,-1,-1,-1,-1,-1,-1,-1,-1,-1],"loss_changes":[1.0875784E2,3.4239464E1,3.8498055E1,8.616158E0,2.6667719E1,2.0685646E1,1.17960415E1,1.2157887E0,1.905693E0,5.7003975E0,3.090615E0,2.4932968E1,2.624562E1,1.3920174E0,1.677473E0,5.15059E-1,1.6225779E-1,7.678318E-2,2.5520325E-1,1.5446432E0,3.084015E0,1.4602296E0,7.758696E-1,2.5879605E0,2.7406403E1,7.5312653E0,2.1399706E1,7.559509E-1,0E0,4.948737E-1,1.4622488E0,0E0,1.12529516E-1,0E0,0E0,3.1486988E-2,0E0,0E0,5.6376457E-3,8.481978E-1,9.046469E-1,7.262764E-1,1.5568085E0,4.6432877E-1,3.625768E-1,6.745732E-2,3.7773363E-2,0E0,3.1255667E0,9.129589E0,2.329489E0,9.517288E0,5.5917993E0,2.2407776E1,1.9078465E0,3.5386848E-1,2.4372005E-1,0E0,3.1940147E-1,9.20074E-2,6.793986E-1,0E0,2.4384644E-2,9.277582E-3,0E0,0E0,0E0,1.0588467E-1,2.0616993E-1,7.8543186E-1,7.18863E-1,4.2428148E-1,7.470355E-1,3.0273885E-2,9.856224E-1,6.4620304E-1,2.891368E-1,7.626234E-2,1.7766654E-2,3.168845E-2,0E0,0E0,2.2077898E-3,6.4310646E-1,2.3386483E0,8.993435E0,6.242061E-1,7.6064444E-1,3.6623985E-1,1.1900024E0,7.218399E-1,6.9281535E0,8.347568E0,4.296219E0,6.986603E0,8.7746966E-1,1.4347706E0,3.9534378E-1,0E0,0E0,9.76553E-2,4.495138E-2,1.2592866E-1,0E0,0E0,1.17399715E-1,1.0698748E-1,0E0,0E0,0E0,0E0,0E0,0E0,0E0,0E0,0E0,0E0,0E0,0E0,0E0,0E0,0E0,0E0,0E0,0E0,0E0,0E0,0E0,0E0,0E0,0E0,0E0,0E0,0E0,0E0,0E0,0E0,0E0,0E0,0E0,0E0,0E0,0E0,0E0,0E0,0E0,0E0,0E0,0E0,0E0,0E0,0E0,0E0,0E0,0E0,0E0,0E0,0E0,0E0,0E0,0E0,0E0,0E0,0E0,0E0,0E0,0E0,0E0,0E0,0E0,0E0,0E0,0E0,0E0,0E0,0E0,0E0,0E0,0E0],"parents":[2147483647,0,0,1,1,2,2,3,3,4,4,5,5,6,6,7,7,8,8,9,9,10,10,11,11,12,12,13,13,14,14,15,15,16,16,17,17,18,18,19,19,20,20,21,21,22,22,23,23,24,24,25,25,26,26,27,27,29,29,30,30,32,32,35,35,38,38,39,39,40,40,41,41,42,42,43,43,44,44,45,45,46,46,48,48,49,49,50,50,51,51,52,52,53,53,54,54,55,55,56,56,58,58,59,59,60,60,62,62,63,63,67,67,68,68,69,69,70,70,71,71,72,72,73,73,74,74,75,75,76,76,77,77,78,78,79,79,82,82,83,83,84,84,85,85,86,86,87,87,88,88,89,89,90,90,91,91,92,92,93,93,94,94,95,95,96,96,97,97,100,100,101,101,102,102,105,105,106,106],"right_children":[2,4,6,8,10,12,14,16,18,20,22,24,26,28,30,32,34,36,38,40,42,44,46,48,50,52,54,56,-1,58,60,-1,62,-1,-1,64,-1,-1,66,68,70,72,74,76,78,80,82,-1,84,86,88,90,92,94,96,98,100,-1,102,104,106,-1,108,110,-1,-1,-1,112,114,116,118,120,122,124,126,128,130,132,134,136,-1,-1,138,140,142,144,146,148,150,152,154,156,158,160,162,164,166,168,-1,-1,170,172,174,-1,-1,176,178,-1,-1,-1,-1,-1,-1,-1,-1,-1,-1,-1,-1,-1,-1,-1,-1,-1,-1,-1,-1,-1,-1,-1,-1,-1,-1,-1,-1,-1,-1,-1,-1,-1,-1,-1,-1,-1,-1,-1,-1,-1,-1,-1,-1,-1,-1,-1,-1,-1,-1,-1,-1,-1,-1,-1,-1,-1,-1,-1,-1,-1,-1,-1,-1,-1,-1,-1,-1,-1,-1,-1,-1],"split_conditions":[2.3053148E-1,8.292759E1,4.530858E0,1.0887654E2,6.155428E1,3.866446E0,6.0103817E1,8.837072E1,7.5392975E1,4.259878E0,4.2468826E1,8.048909E1,4.064879E0,2.6518658E-1,9.997719E1,2.1758146E1,1.0663189E2,4.2532825E0,2.2516546E-1,9.1576965E1,3.421498E1,9.198333E1,1.1060207E2,7.894399E1,8.1107796E1,9.194235E1,4.5737804E1,9.020757E1,-1.1477846E-2,1.0236753E2,3.7416508E1,6.0862573E-3,3.9018936E0,2.9875034E-2,6.6853436E-3,2.2981863E-1,2.1600088E-2,2.8810287E-2,8.6111244E1,2.2629838E-1,4.171643E0,3.1956633E1,9.0029686E1,9.2167725E1,3.4523716E1,1.0676763E2,1.1236456E2,-1.3578E-2,6.547524E1,8.875384E1,2.741842E-1,9.107227E1,4.0843906E1,1.0596834E2,2.3994662E-1,2.607158E-1,1.0236753E2,2.2809638E-2,9.020757E1,3.3253166E1,9.5213165E1,-1.2211537E-2,7.709684E1,6.708544E1,8.051976E-3,4.989615E-3,1.8327527E-2,8.68044E1,3.156615E1,8.999887E1,1.0378612E2,4.501714E0,1.0457866E2,1.05050446E2,4.4538636E0,6.180421E1,9.492826E-1,1.04269936E2,1.0102744E2,9.4669975E1,-1.6263418E-3,-7.436774E-3,3.682481E1,1.9624147E1,9.7259445E1,1.090385E2,2.5882474E-1,2.2601105E1,9.5995766E1,8.305135E1,7.77333E1,7.733156E1,2.9428362E1,4.183116E0,8.2169846E1,1.003718E0,4.4402366E0,1.2144983E0,6.6530067E-3,2.904965E-3,5.9887054E1,2.4302517E-1,9.7259445E1,1.2119347E-2,3.4955796E-2,6.269222E1,6.653683E1,-5.2502737E-3,6.982138E-4,8.167593E-3,1.728422E-2,2.1692217E-4,-1.6826121E-2,1.2198872E-2,6.7882554E-4,-5.7095024E-3,8.99376E-3,1.9039607E-2,6.8765394E-3,1.1802912E-2,3.9001676E-4,2.3442013E-2,1.0535642E-2,1.2021773E-3,-5.5902274E-3,2.069701E-2,2.9843945E-2,1.542257E-2,-8.432242E-3,-7.0166304E-3,1.5306532E-3,-3.3728515E-3,5.402937E-3,2.0387212E-2,4.9176933E-3,1.078714E-2,5.575467E-3,-2.331523E-3,-1.365304E-4,1.2294861E-3,-1.1005002E-2,2.036562E-3,-1.6152978E-2,1.4163563E-2,5.1184714E-2,5.6497095E-4,3.0043602E-2,5.0883517E-3,1.0902252E-2,-3.6562015E-3,-1.6023092E-2,-8.378616E-3,-5.765572E-3,-1.6255215E-2,1.0077756E-2,-5.1641115E-3,5.852803E-3,3.0116898E-3,-9.248708E-3,5.6381165E-3,1.556089E-2,1.586367E-2,-9.7213965E-4,-6.976127E-3,8.037614E-3,-8.859277E-3,-6.3306506E-4,3.833431E-2,5.6990724E-2,3.2218505E-2,1.1304168E-2,-1.4087326E-2,-5.839083E-3,-2.91633E-3,5.745778E-3,-7.3640496E-3,2.7085324E-3,1.7538786E-2,7.7226013E-3],"split_indices":[10,4,5,2,7,5,7,0,7,5,1,0,5,10,4,2,1,5,10,0,1,4,1,4,4,4,1,0,0,2,1,0,5,0,0,10,0,0,0,10,5,1,4,0,1,2,1,0,7,7,10,4,1,2,10,10,2,0,0,1,0,0,7,7,0,0,0,0,1,4,2,5,2,2,5,7,8,2,0,0,0,0,2,2,4,1,10,2,4,4,7,0,2,5,4,8,5,8,0,0,7,10,4,0,0,7,7,0,0,0,0,0,0,0,0,0,0,0,0,0,0,0,0,0,0,0,0,0,0,0,0,0,0,0,0,0,0,0,0,0,0,0,0,0,0,0,0,0,0,0,0,0,0,0,0,0,0,0,0,0,0,0,0,0,0,0,0,0,0,0,0,0,0,0,0,0,0,0,0],"split_type":[0,0,0,0,0,0,0,0,0,0,0,0,0,0,0,0,0,0,0,0,0,0,0,0,0,0,0,0,0,0,0,0,0,0,0,0,0,0,0,0,0,0,0,0,0,0,0,0,0,0,0,0,0,0,0,0,0,0,0,0,0,0,0,0,0,0,0,0,0,0,0,0,0,0,0,0,0,0,0,0,0,0,0,0,0,0,0,0,0,0,0,0,0,0,0,0,0,0,0,0,0,0,0,0,0,0,0,0,0,0,0,0,0,0,0,0,0,0,0,0,0,0,0,0,0,0,0,0,0,0,0,0,0,0,0,0,0,0,0,0,0,0,0,0,0,0,0,0,0,0,0,0,0,0,0,0,0,0,0,0,0,0,0,0,0,0,0,0,0,0,0,0,0,0,0,0,0,0,0],"sum_hessian":[8.476E3,1.126E3,7.35E3,4.51E2,6.75E2,7.214E3,1.36E2,3E1,4.21E2,3.75E2,3E2,8.13E2,6.401E3,7.2E1,6.4E1,2.6E1,4E0,6.9E1,3.52E2,1.38E2,2.37E2,2.46E2,5.4E1,4.25E2,3.88E2,3.473E3,2.928E3,7.1E1,1E0,2.7E1,3.7E1,7E0,1.9E1,2E0,2E0,3.8E1,3.1E1,3.41E2,1.1E1,3E1,1.08E2,8.2E1,1.55E2,2.32E2,1.4E1,4.4E1,1E1,5.5E1,3.7E2,1.08E2,2.8E2,2.123E3,1.35E3,2.194E3,7.34E2,4E1,3.1E1,1E0,2.6E1,9E0,2.8E1,1.1E1,8E0,3.4E1,4E0,1E0,1E1,8E0,2.2E1,5E1,5.8E1,3.2E1,5E1,5E0,1.5E2,1.93E2,3.9E1,9E0,5E0,4.3E1,1E0,6E0,4E0,1E2,2.7E2,8.9E1,1.9E1,2.54E2,2.6E1,1.78E3,3.43E2,5.7E2,7.8E2,4.73E2,1.721E3,4.1E1,6.93E2,3.9E1,1E0,1E0,3E1,1.1E1,1.5E1,2E0,7E0,1E1,1.8E1,6E0,2E0,3E0,3.1E1,1E0,7E0,4E0,1.8E1,1.1E1,3.9E1,3.8E1,2E1,1.7E1,1.5E1,2.2E1,2.8E1,3E0,2E0,6.6E1,8.4E1,2E0,1.91E2,1.6E1,2.3E1,3E0,6E0,4E0,1E0,3.6E1,7E0,1E0,3E0,1.2E1,8.8E1,2.52E2,1.8E1,2.3E1,6.6E1,1.8E1,1E0,1.67E2,8.7E1,1.7E1,9E0,8.21E2,9.59E2,3.41E2,2E0,2.98E2,2.72E2,1.8E2,6E2,1.74E2,2.99E2,6.3E1,1.658E3,1.4E1,2.7E1,6.35E2,5.8E1,2.8E1,1.1E1,2.8E1,2E0,3E0,8E0,7E0,8E0,4E0,6E0,1.1E1,7E0],"tree_param":{"num_deleted":"0","num_feature":"11","num_nodes":"179","size_leaf_vector":"1"}},{"base_weights":[3.3266103E-4,2.331936E-1,-4.027854E-2,5.8755625E-2,4.2591056E-1,-8.360418E-2,1.3843372E-1,-1.6186048E-1,1.1877239E-1,3.3499625E-2,5.142952E-1,3.694441E-2,-1.04952455E-1,4.8725176E-1,3.959765E-2,-1.3607974E-2,-1.2040121E-1,3.4041348E-1,4.2687453E-2,-1.4068949E-1,1.3361588E-1,7.475503E-1,4.701265E-1,-3.390456E-2,2.2562161E-1,-1.277205E-1,2.3737935E-2,3.0683357E-1,5.616428E-1,1.9552888E-1,6.7896587E-3,-1.24778576E-1,-5.1728416E-2,-1.11391395E-2,3.6908555E-1,-1.040337E-1,2.1362497E-1,-1.7128764E-1,6.6347644E-2,1.6625624E-2,1.760426E-1,-7.5998767E-3,8.268258E-1,5.271056E-1,1.5695965E-1,-4.71037E-2,3.978939E-1,2.5520846E-1,-2.3322272E-1,-1.588716E-1,-8.2670264E-2,-4.790215E-2,8.697502E-2,3.6401057E-1,-2.0413661E-1,6.9878054E-1,4.8683614E-1,2.4189101E-1,-1.2199138E-1,-3.3753548E-2,7.410473E-2,-2.248234E-3,-1.2769656E-1,-3.965901E-3,-4.309304E-3,3.3921003E-2,-1.4793706E-1,1.0013046E0,3.0427587E-1,6.648746E-2,-1.4579615E-1,3.8481995E-1,1.7542455E-1,-1.8713078E-1,3.2681923E-3,-2.622448E-3,6.942909E-3,-1.0355157E-1,5.3141896E-2,3.370374E-2,1.5306011E-1,8.931671E-1,-2.967613E-2,5.4274595E-1,3.1193036E-1,2.0014495E-1,-1.0057395E-1,-2.5013067E-2,-2.3181742E-1,4.811847E-1,-1.0335925E-2,3.6753023E-1,2.1213675E-1,-1.0255812E-1,-1.3570683E-2,-1.9267583E-1,-1.2203382E-1,-5.3304072E-2,-2.1070547E-1,-1.4416647E-1,2.4535602E-2,2.5715688E-1,4.3615773E-2,1.6378339E-1,3.8585407E-1,-1.3102016E-2,-5.1770978E-2,7.723449E-1,5.5545974E-1,5.435112E-1,2.4139398E-1,2.758632E-1,-1.2075119E-1,-2.602039E-1,-2.7984094E-2,-1.9193675E-2,-1.9855921E-1,2.0554808E-1,2.3454627E-2,-7.327342E-3,-5.851594E-3,-4.4361726E-4,8.4579E-6,-8.386572E-3,7.553071E-4,-5.59568E-3,5.619089E-2,1.7098863E-2,6.62325E-4,7.5536035E-3,-8.637276E-4,-7.4800425E-3,-1.8186531E-3,1.3073029E-2,2.843153E-2,4.2231916E-3,1.4274447E-2,-1.0925236E-2,-2.8926197E-3,1.7696619E-3,-7.356804E-3,3.8403631E-3,-7.1416795E-4,9.758038E-3,1.3927019E-3,5.359313E-2,2.475888E-2,2.5232434E-3,-4.118142E-3,7.0922077E-3,2.7177397E-2,1.669093E-2,7.661804E-3,2.1578355E-2,8.702194E-3,-2.505955E-3,-7.0502493E-3,-5.157708E-3,2.6750213E-3,-1.3445849E-2,-1.0936316E-3,1.1039302E-3,2.5424946E-2,2.3014555E-2,1.2088298E-2,7.052399E-3,1.62497E-2,-5.8724172E-3,-1.0749303E-3,-7.4756755E-3,-1.4692954E-2,-8.824692E-3,-4.7204285E-3,-5.7113464E-3,-1.0509979E-3,-9.449574E-3,-1.4277778E-2,-1.3171892E-2,-4.0031327E-3,6.452275E-3,-7.011348E-4,7.2008236E-3,3.6891546E-2,-9.590714E-3,2.9661397E-3,2.6393223E-3,1.585411E-2,1.1649604E-2,2.1009317E-2,-4.3042717E-3,1.2793094E-3,3.466912E-2,5.6225237E-2,2.833934E-2,5.9575634E-3,2.7485609E-2,-4.394965E-3,2.1486575E-2,4.454353E-4,8.238662E-3,1.7802292E-2,-3.0817066E-3,-9.957721E-3,-1.7577149E-2,-1.765475E-3,-7.2596082E-3,7.1726865E-3,-3.3542202E-3,2.4058567E-3,-1.1009536E-2,-2.3292531E-3,-6.048228E-3,1.2056229E-2,-4.9433596E-3,5.8490797E-3],"categories":[],"categories_nodes":[],"categories_segments":[],"categories_sizes":[],"default_left":[0,0,0,0,0,0,0,0,0,0,0,0,0,0,0,0,0,0,0,0,0,0,0,0,0,0,0,0,0,0,0,0,0,0,0,0,0,0,0,0,0,0,0,0,0,0,0,0,0,0,0,0,0,0,0,0,0,0,0,0,0,0,0,0,0,0,0,0,0,0,0,0,0,0,0,0,0,0,0,0,0,0,0,0,0,0,0,0,0,0,0,0,0,0,0,0,0,0,0,0,0,0,0,0,0,0,0,0,0,0,0,0,0,0,0,0,0,0,0,0,0,0,0,0,0,0,0,0,0,0,0,0,0,0,0,0,0,0,0,0,0,0,0,0,0,0,0,0,0,0,0,0,0,0,0,0,0,0,0,0,0,0,0,0,0,0,0,0,0,0,0,0,0,0,0,0,0,0,0,0,0,0,0,0,0,0,0,0,0,0,0,0,0,0,0,0,0,0,0,0,0,0,0,0,0,0,0,0,0,0,0,0,0,0,0],"id":6,"left_children":[1,3,5,7,9,11,13,15,17,19,21,23,25,27,29,-1,31,33,35,37,39,41,43,45,47,49,51,53,55,57,59,61,63,65,67,69,71,73,75,77,79,-1,81,83,85,87,89,91,93,95,97,99,101,103,105,107,109,111,113,115,117,-1,119,-1,121,-1,123,125,127,129,131,133,135,137,-1,-1,-1,139,141,-1,143,145,147,149,151,153,155,157,159,161,-1,163,165,167,-1,169,171,173,175,177,179,181,183,185,187,-1,189,191,193,195,197,199,201,203,205,207,209,211,213,-1,-1,-1,-1,-1,-1,-1,-1,-1,-1,-1,-1,-1,-1,-1,-1,-1,-1,-1,-1,-1,-1,-1,-1,-1,-1,-1,-1,-1,-1,-1,-1,-1,-1,-1,-1,-1,-1,-1,-1,-1,-1,-1,-1,-1,-1,-1,-1,-1,-1,-1,-1,-1,-1,-1,-1,-1,-1,-1,-1,-1,-1,-1,-1,-1,-1,-1,-1,-1,-1,-1,-1,-1,-1,-1,-1,-1,-1,-1,-1,-1,-1,-1,-1,-1,-1,-1,-1,-1,-1,-1,-1,-1,-1,-1,-1],"loss_changes":[8.017437E1,4.2298973E1,5.5907013E1,8.784544E0,2.0723274E1,1.4958511E1,4.855712E1,6.1658573E-1,8.771378E0,1.9545456E0,4.6762085E0,1.1704287E1,1.4468582E1,4.001747E0,5.6209254E0,0E0,2.5108933E-2,1.344717E0,9.778402E0,2.7109754E-1,3.4948242E-1,5.5453987E0,7.2868347E0,3.6492393E0,3.3041277E0,5.8739853E0,3.3701866E0,2.7913723E0,1.9064941E0,2.8412046E0,2.4833155E0,1.7081857E-2,1.0124393E-2,1.1379964E0,4.735119E0,1.5051839E0,1.109643E0,1.4720654E-1,5.8967E-2,9.327139E-2,4.9201918E-1,0E0,4.0040054E0,1.0052261E0,7.430376E-1,2.5199955E0,1.056284E0,1.01056E0,4.7017395E-2,3.0635185E0,6.4445286E0,2.4371738E0,2.9034724E0,3.0418968E-1,7.465926E-2,3.617401E-1,1.8858147E0,2.0907078E0,3.1754297E-1,1.359133E0,2.2720845E0,0E0,1.7464161E-3,0E0,8.324245E-5,0E0,3.480716E-2,1.6259937E0,1.2353287E0,3.001787E-1,6.491685E-2,5.769181E-1,1.4676056E0,1.252619E-1,0E0,0E0,0E0,3.548683E-2,2.6627362E-2,0E0,2.6339805E-1,4.0919685E0,2.9490625E-2,2.7076721E-2,3.915882E-2,2.6314878E-1,1.3332382E-2,3.4043808E0,5.081825E-1,2.0195532E-1,0E0,6.0034275E-1,1.277935E0,3.5099983E-3,0E0,5.5942535E0,1.7721539E0,2.7472417E0,4.661255E-1,1.1257708E0,8.077542E-1,4.2444315E0,1.1799167E0,1.5341935E-1,2.957077E-1,0E0,1.2820471E-2,5.2723694E-1,7.578659E-2,5.064125E-1,1.2659566E0,1.3041792E0,5.7249814E-2,1.9300377E-1,3.4233066E-1,1.6891518E0,1.4096403E-1,1.1327043E0,2.8487823E0,0E0,0E0,0E0,0E0,0E0,0E0,0E0,0E0,0E0,0E0,0E0,0E0,0E0,0E0,0E0,0E0,0E0,0E0,0E0,0E0,0E0,0E0,0E0,0E0,0E0,0E0,0E0,0E0,0E0,0E0,0E0,0E0,0E0,0E0,0E0,0E0,0E0,0E0,0E0,0E0,0E0,0E0,0E0,0E0,0E0,0E0,0E0,0E0,0E0,0E0,0E0,0E0,0E0,0E0,0E0,0E0,0E0,0E0,0E0,0E0,0E0,0E0,0E0,0E0,0E0,0E0,0E0,0E0,0E0,0E0,0E0,0E0,0E0,0E0,0E0,0E0,0E0,0E0,0E0,0E0,0E0,0E0,0E0,0E0,0E0,0E0,0E0,0E0,0E0,0E0,0E0,0E0,0E0,0E0,0E0,0E0],"parents":[2147483647,0,0,1,1,2,2,3,3,4,4,5,5,6,6,7,7,8,8,9,9,10,10,11,11,12,12,13,13,14,14,16,16,17,17,18,18,19,19,20,20,21,21,22,22,23,23,24,24,25,25,26,26,27,27,28,28,29,29,30,30,31,31,32,32,33,33,34,34,35,35,36,36,37,37,38,38,39,39,40,40,42,42,43,43,44,44,45,45,46,46,47,47,48,48,49,49,50,50,51,51,52,52,53,53,54,54,55,55,56,56,57,57,58,58,59,59,60,60,62,62,64,64,66,66,67,67,68,68,69,69,70,70,71,71,72,72,73,73,77,77,78,78,80,80,81,81,82,82,83,83,84,84,85,85,86,86,87,87,88,88,89,89,91,91,92,92,93,93,95,95,96,96,97,97,98,98,99,99,100,100,101,101,102,102,103,103,104,104,106,106,107,107,108,108,109,109,110,110,111,111,112,112,113,113,114,114,115,115,116,116,117,117,118,118],"right_children":[2,4,6,8,10,12,14,16,18,20,22,24,26,28,30,-1,32,34,36,38,40,42,44,46,48,50,52,54,56,58,60,62,64,66,68,70,72,74,76,78,80,-1,82,84,86,88,90,92,94,96,98,100,102,104,106,108,110,112,114,116,118,-1,120,-1,122,-1,124,126,128,130,132,134,136,138,-1,-1,-1,140,142,-1,144,146,148,150,152,154,156,158,160,162,-1,164,166,168,-1,170,172,174,176,178,180,182,184,186,188,-1,190,192,194,196,198,200,202,204,206,208,210,212,214,-1,-1,-1,-1,-1,-1,-1,-1,-1,-1,-1,-1,-1,-1,-1,-1,-1,-1,-1,-1,-1,-1,-1,-1,-1,-1,-1,-1,-1,-1,-1,-1,-1,-1,-1,-1,-1,-1,-1,-1,-1,-1,-1,-1,-1,-1,-1,-1,-1,-1,-1,-1,-1,-1,-1,-1,-1,-1,-1,-1,-1,-1,-1,-1,-1,-1,-1,-1,-1,-1,-1,-1,-1,-1,-1,-1,-1,-1,-1,-1,-1,-1,-1,-1,-1,-1,-1,-1,-1,-1,-1,-1,-1,-1,-1,-1],"split_conditions":[9.779815E-1,7.543088E1,4.3143897E0,7.996411E1,1.0935302E2,1.0421263E2,1.04420616E2,3.998694E0,8.2169846E1,1.0835068E2,8.101214E1,4.1065683E0,8.2386314E1,4.4196496E0,1.06520294E2,-1.3607974E-2,9.620669E-1,8.352689E1,8.795268E1,8.4798485E1,8.001789E1,8.027987E1,-2.3771003E-1,8.8229805E1,2.2998112E1,4.044543E0,7.678774E1,2.3101114E1,5.9679596E1,9.650557E1,1.1145041E2,3.9993167E0,6.857363E1,1.996143E1,8.1107796E1,4.000134E0,5.9352905E1,4.075639E0,8.111822E1,8.193011E1,8.002225E1,-7.5998767E-3,8.875384E1,1.9725363E1,8.500098E1,1.0748122E-1,2.2076418E1,1.0264266E2,1.0868753E0,2.0899633E1,6.977204E1,8.2169846E1,1.0080769E0,8.075649E1,4.3732085E0,-4.1412854E-1,2.1802065E1,-1.4026254E-1,9.979551E-1,6.857363E1,6.4720406E1,-2.248234E-3,6.708544E1,-3.965901E-3,7.4981926E1,3.3921003E-2,8.344048E1,8.000548E1,2.0180588E1,2.0632687E1,2.1368574E1,4.1960783E0,4.3797507E0,2.0570059E1,3.2681923E-3,-2.622448E-3,6.942909E-3,3.8507502E0,1.0931805E2,3.370374E-2,9.672553E-1,3.866446E0,2.0299055E1,-4.2968684E-1,2.0063097E1,8.194619E1,9.384879E1,2.0423132E1,7.391744E1,9.273615E1,-1.0335925E-2,5.9200195E1,4.2431674E0,2.3695906E1,-1.3570683E-2,9.107227E1,1.064823E2,9.130041E1,7.5366905E1,6.500869E1,2.0550047E1,9.052615E1,7.894399E1,5.9628162E1,1.0163442E0,-1.3102016E-2,9.671547E1,1.2144983E0,9.42572E1,4.7517533E0,6.0005478E1,4.384791E0,4.4923563E0,4.5412893E0,4.4402366E0,1.1128814E0,1.2602414E0,9.791012E1,9.806216E1,-7.327342E-3,-5.851594E-3,-4.4361726E-4,8.4579E-6,-8.386572E-3,7.553071E-4,-5.59568E-3,5.619089E-2,1.7098863E-2,6.62325E-4,7.5536035E-3,-8.637276E-4,-7.4800425E-3,-1.8186531E-3,1.3073029E-2,2.843153E-2,4.2231916E-3,1.4274447E-2,-1.0925236E-2,-2.8926197E-3,1.7696619E-3,-7.356804E-3,3.8403631E-3,-7.1416795E-4,9.758038E-3,1.3927019E-3,5.359313E-2,2.475888E-2,2.5232434E-3,-4.118142E-3,7.0922077E-3,2.7177397E-2,1.669093E-2,7.661804E-3,2.1578355E-2,8.702194E-3,-2.505955E-3,-7.0502493E-3,-5.157708E-3,2.6750213E-3,-1.3445849E-2,-1.0936316E-3,1.1039302E-3,2.5424946E-2,2.3014555E-2,1.2088298E-2,7.052399E-3,1.62497E-2,-5.8724172E-3,-1.0749303E-3,-7.4756755E-3,-1.4692954E-2,-8.824692E-3,-4.7204285E-3,-5.7113464E-3,-1.0509979E-3,-9.449574E-3,-1.4277778E-2,-1.3171892E-2,-4.0031327E-3,6.452275E-3,-7.011348E-4,7.2008236E-3,3.6891546E-2,-9.590714E-3,2.9661397E-3,2.6393223E-3,1.585411E-2,1.1649604E-2,2.1009317E-2,-4.3042717E-3,1.2793094E-3,3.466912E-2,5.6225237E-2,2.833934E-2,5.9575634E-3,2.7485609E-2,-4.394965E-3,2.1486575E-2,4.454353E-4,8.238662E-3,1.7802292E-2,-3.0817066E-3,-9.957721E-3,-1.7577149E-2,-1.765475E-3,-7.2596082E-3,7.1726865E-3,-3.3542202E-3,2.4058567E-3,-1.1009536E-2,-2.3292531E-3,-6.048228E-3,1.2056229E-2,-4.9433596E-3,5.8490797E-3],"split_indices":[8,7,5,4,6,6,6,5,4,6,4,5,9,5,6,0,8,0,4,9,4,0,9,7,3,5,7,3,7,0,6,5,7,3,4,5,7,5,0,0,4,0,7,3,4,9,3,6,8,3,9,4,8,0,5,9,3,9,8,7,7,0,7,0,4,0,0,4,3,3,3,5,5,3,0,0,0,5,6,0,8,5,3,9,3,4,0,3,9,4,0,7,5,3,0,4,6,4,9,7,3,9,4,7,8,0,0,8,0,5,7,5,5,5,5,8,8,4,4,0,0,0,0,0,0,0,0,0,0,0,0,0,0,0,0,0,0,0,0,0,0,0,0,0,0,0,0,0,0,0,0,0,0,0,0,0,0,0,0,0,0,0,0,0,0,0,0,0,0,0,0,0,0,0,0,0,0,0,0,0,0,0,0,0,0,0,0,0,0,0,0,0,0,0,0,0,0,0,0,0,0,0,0,0,0,0,0,0,0,0,0,0,0,0,0],"split_type":[0,0,0,0,0,0,0,0,0,0,0,0,0,0,0,0,0,0,0,0,0,0,0,0,0,0,0,0,0,0,0,0,0,0,0,0,0,0,0,0,0,0,0,0,0,0,0,0,0,0,0,0,0,0,0,0,0,0,0,0,0,0,0,0,0,0,0,0,0,0,0,0,0,0,0,0,0,0,0,0,0,0,0,0,0,0,0,0,0,0,0,0,0,0,0,0,0,0,0,0,0,0,0,0,0,0,0,0,0,0,0,0,0,0,0,0,0,0,0,0,0,0,0,0,0,0,0,0,0,0,0,0,0,0,0,0,0,0,0,0,0,0,0,0,0,0,0,0,0,0,0,0,0,0,0,0,0,0,0,0,0,0,0,0,0,0,0,0,0,0,0,0,0,0,0,0,0,0,0,0,0,0,0,0,0,0,0,0,0,0,0,0,0,0,0,0,0,0,0,0,0,0,0,0,0,0,0,0,0,0,0,0,0,0,0],"sum_hessian":[8.476E3,1.258E3,7.218E3,6.61E2,5.97E2,5.81E3,1.408E3,1.41E2,5.2E2,1.1E2,4.87E2,8.74E2,4.936E3,3.1E2,1.098E3,3.7E1,1.04E2,1.32E2,3.88E2,4E1,7E1,7.5E1,4.12E2,6.36E2,2.38E2,4.194E3,7.42E2,9.2E1,2.18E2,1.9E2,9.08E2,9.7E1,7E0,1E1,1.22E2,2.09E2,1.79E2,3.5E1,5E0,1.9E1,5.1E1,6E0,6.9E1,3.48E2,6.4E1,6.18E2,1.8E1,2.24E2,1.4E1,2.478E3,1.716E3,3.48E2,3.94E2,8.3E1,9E0,7.4E1,1.44E2,1.66E2,2.4E1,5.67E2,3.41E2,4E0,9.3E1,4E0,3E0,1E0,9E0,1E1,1.12E2,4.1E1,1.68E2,3.1E1,1.48E2,3.3E1,2E0,2E0,3E0,4E0,1.5E1,1E0,5E1,6.4E1,5E0,3.23E2,2.5E1,5.5E1,9E0,5.53E2,6.5E1,1.6E1,2E0,6E1,1.64E2,4E0,1E1,1.29E3,1.188E3,1.397E3,3.19E2,1.49E2,1.99E2,7.9E1,3.15E2,9E0,7.4E1,6E0,3E0,4.6E1,2.8E1,1.16E2,2.8E1,1.52E2,1.4E1,9E0,1.5E1,5.22E2,4.5E1,9.4E1,2.47E2,2.9E1,6.4E1,1E0,2E0,8E0,1E0,1E0,9E0,9.9E1,1.3E1,2E1,2.1E1,1.62E2,6E0,2E1,1.1E1,8.2E1,6.6E1,2.6E1,7E0,1E0,3E0,1.1E1,4E0,3.7E1,1.3E1,4.3E1,2.1E1,2E0,3E0,1E0,3.22E2,2.1E1,4E0,4E0,5.1E1,5E0,4E0,2.77E2,2.76E2,5.5E1,1E1,1E0,1.5E1,3.3E1,2.7E1,1.02E2,6.2E1,3E0,1E0,9.06E2,3.84E2,3.98E2,7.9E2,4.83E2,9.14E2,2.5E2,6.9E1,5.1E1,9.8E1,5.3E1,1.46E2,6.5E1,1.4E1,1.9E1,2.96E2,6E0,3E0,1.5E1,5.9E1,2E0,1E0,4E1,6E0,2.7E1,1E0,1.15E2,1E0,1.5E1,1.3E1,6.5E1,8.7E1,9E0,5E0,6E0,3E0,9E0,6E0,3.05E2,2.17E2,3.9E1,6E0,9E0,8.5E1,1.07E2,1.4E2],"tree_param":{"num_deleted":"0","num_feature":"11","num_nodes":"215","size_leaf_vector":"1"}},{"base_weights":[3.7402147E-4,2.62228E-1,-3.9771512E-2,1.5994248E-1,4.3468195E-1,-4.886126E-2,4.3922362E-1,2.940998E-1,8.436205E-3,1.2316603E-2,5.093918E-1,-6.662243E-2,1.0032213E-1,6.6493237E-1,1.203284E-1,1.2086991E-1,3.680698E-1,-6.950499E-2,1.4270529E-1,-1.17325164E-1,1.6315478E-1,5.1351184E-1,-7.328432E-3,-1.0006999E-1,3.328599E-2,-1.459555E-2,2.545245E-1,6.792875E-1,-1.1728063E-2,2.0308393E-1,2.9677295E-3,2.3014796E-1,4.6266146E-2,1.1396348E-1,4.0403304E-1,-1.0807214E-1,1.6807142E-1,-1.8120825E-1,2.2718537E-1,-1.8308018E-1,2.3961985E-2,-1.1154763E-1,1.8676022E-1,5.15149E-1,-1.6104177E-3,3.8034618E-2,-1.1302298E-1,2.508194E-1,-9.121474E-3,-8.188745E-2,6.0493488E-2,1.410018E-1,5.2740216E-1,7.715676E-1,5.272738E-1,3.0600304E-2,1.2816077E-1,1.6861005E-2,-2.5010288E-2,-1.7541751E-1,2.7294984E-1,2.4672581E-1,-1.8905181E-2,2.0485045E-1,-1.0875277E-3,3.1508526E-1,5.3889525E-1,2.9332258E-2,-1.430947E-1,2.1985216E-1,-6.7401365E-3,5.8272135E-2,-2.7250484E-1,2.552012E-1,-7.8215785E-2,3.2378423E-3,-2.0855433E-1,3.6783777E-3,-3.790484E-2,-6.8803937E-3,-1.4856786E-3,1.2461262E-1,2.3231396E-1,1.3640791E-2,2.5927648E-2,-4.0410176E-2,1.4067315E-1,-1.3318735E-1,-6.840942E-2,3.0202115E-1,-1.1674479E-1,1.7609885E-2,-1.1089579E-1,-1.2282058E-1,3.2989733E-2,1.7150244E-1,1.5686616E-2,1.8014923E-1,-7.1242556E-2,6.683314E-1,1.2227239E-1,7.91708E-1,-3.87225E-3,1.1328743E-1,2.9023444E-2,-1.1165551E-1,2.7287838E-1,9.461158E-3,-5.3087108E-2,-1.3349334E-3,-1.3283193E-2,1.8508283E-2,5.410549E-3,1.6776342E-3,2.4117574E-2,-8.568784E-3,2.8927603E-3,-6.049296E-4,1.15542775E-2,3.6681034E-3,-6.86986E-3,1.6878825E-2,-6.653545E-4,3.186913E-3,2.7175898E-2,-4.6680886E-3,8.542286E-3,8.276223E-3,-7.426528E-3,4.806E-3,1.3018938E-2,9.087818E-3,-5.532558E-3,-1.4636854E-2,-3.3510309E-3,8.187392E-3,1.695593E-2,1.4297583E-3,-4.757078E-3,-1.1402621E-2,-4.524509E-4,-3.3228179E-3,-3.507495E-4,6.437032E-3,1.7737106E-3,6.7761936E-3,1.3357832E-2,-2.8720964E-3,1.977755E-2,9.590865E-3,-1.0839056E-2,-7.516929E-3,-2.0454635E-3,6.0768607E-3,-4.80825E-3,1.575177E-2,-1.759167E-2,-1.0671765E-2,-2.5664747E-3,-6.4149447E-4,4.599715E-3,2.6448546E-3,-6.316868E-3,-7.934785E-3,-1.8490002E-3,-1.050963E-3,3.3826907E-3,2.35478E-3,2.884519E-2,-2.0410973E-3,2.2604715E-3,1.2335463E-2,2.9276907E-3,-5.702163E-3,8.273339E-4,3.6302816E-2,-3.901551E-3,2.8914392E-3,1.4446475E-2,4.1138195E-2,1.299652E-2,2.6778348E-3,8.805259E-3,-1.117337E-2,1.8700467E-3,1.777026E-2,8.153186E-3,-1.03010135E-2,2.0060355E-4],"categories":[],"categories_nodes":[],"categories_segments":[],"categories_sizes":[],"default_left":[0,0,0,0,0,0,0,0,0,0,0,0,0,0,0,0,0,0,0,0,0,0,0,0,0,0,0,0,0,0,0,0,0,0,0,0,0,0,0,0,0,0,0,0,0,0,0,0,0,0,0,0,0,0,0,0,0,0,0,0,0,0,0,0,0,0,0,0,0,0,0,0,0,0,0,0,0,0,0,0,0,0,0,0,0,0,0,0,0,0,0,0,0,0,0,0,0,0,0,0,0,0,0,0,0,0,0,0,0,0,0,0,0,0,0,0,0,0,0,0,0,0,0,0,0,0,0,0,0,0,0,0,0,0,0,0,0,0,0,0,0,0,0,0,0,0,0,0,0,0,0,0,0,0,0,0,0,0,0,0,0,0,0,0,0,0,0,0,0,0,0,0,0,0,0,0,0,0,0,0,0,0,0,0,0,0,0,0,0],"id":7,"left_children":[1,3,5,7,9,11,13,15,17,19,21,23,25,27,29,31,33,35,37,39,41,43,-1,45,47,49,51,53,-1,55,57,59,61,63,65,67,69,71,73,75,77,79,81,83,-1,85,87,89,91,93,95,97,99,101,103,-1,105,-1,107,109,111,113,115,117,119,121,123,125,127,129,-1,131,133,135,137,-1,139,-1,141,-1,-1,143,145,-1,-1,147,149,151,153,155,157,159,161,163,165,167,169,171,173,175,177,179,-1,181,-1,183,185,-1,187,-1,-1,-1,-1,-1,-1,-1,-1,-1,-1,-1,-1,-1,-1,-1,-1,-1,-1,-1,-1,-1,-1,-1,-1,-1,-1,-1,-1,-1,-1,-1,-1,-1,-1,-1,-1,-1,-1,-1,-1,-1,-1,-1,-1,-1,-1,-1,-1,-1,-1,-1,-1,-1,-1,-1,-1,-1,-1,-1,-1,-1,-1,-1,-1,-1,-1,-1,-1,-1,-1,-1,-1,-1,-1,-1,-1,-1,-1,-1,-1],"loss_changes":[8.912292E1,1.9810242E1,3.2027325E1,1.4408422E1,1.321521E1,1.912406E1,9.780899E0,4.7735023E0,3.5052602E0,1.2706574E0,1.0373764E0,2.155057E1,1.3613117E1,1.1923218E0,5.627075E-1,9.1874313E-1,2.35738E0,1.9606442E0,3.4069693E0,3.2954884E-1,2.153669E-1,3.3287048E-1,0E0,8.646317E0,1.4928404E1,2.2332754E0,1.0086355E1,7.0137405E-1,0E0,9.63248E-1,2.4222693E-1,8.4639263E-1,9.0609574E-1,3.5574844E-1,2.5892067E0,8.8484E-1,5.0012827E-1,5.8433676E-1,8.5845566E-1,1.650278E-1,3.961583E-2,2.3090243E-3,5.0320327E-2,1.4971924E-1,0E0,3.34704E0,3.9644394E0,5.0037193E0,3.6883197E0,1.0996838E0,1.0368681E0,1.9487886E0,5.3993664E0,8.649864E-1,6.609678E-1,0E0,1.0716376E0,0E0,1.5440515E-1,6.0013786E-2,6.325836E-1,8.377098E-1,6.3021076E-1,1.10937715E-1,1.7245093E-1,1.0459089E0,1.6304207E-1,6.7573905E-1,2.6951647E-1,1.0534775E-1,0E0,1.8698643E-1,5.9371233E-2,6.351776E-1,1.8991299E-2,0E0,8.351576E-2,0E0,4.825522E-3,0E0,0E0,5.8452785E-4,1.4380276E-2,0E0,0E0,1.7750645E0,3.3322873E0,4.8067894E0,7.271338E0,2.0850277E0,1.9777066E-1,2.432979E0,7.1992254E-1,5.238123E-1,1.1749671E-1,2.9989119E0,2.520893E-1,1.5799527E0,1.409123E-1,3.1155968E0,2.6253116E-1,5.4582024E-1,0E0,9.329133E-3,0E0,2.083533E-1,1.1423671E-1,0E0,1.9293843E-1,0E0,0E0,0E0,0E0,0E0,0E0,0E0,0E0,0E0,0E0,0E0,0E0,0E0,0E0,0E0,0E0,0E0,0E0,0E0,0E0,0E0,0E0,0E0,0E0,0E0,0E0,0E0,0E0,0E0,0E0,0E0,0E0,0E0,0E0,0E0,0E0,0E0,0E0,0E0,0E0,0E0,0E0,0E0,0E0,0E0,0E0,0E0,0E0,0E0,0E0,0E0,0E0,0E0,0E0,0E0,0E0,0E0,0E0,0E0,0E0,0E0,0E0,0E0,0E0,0E0,0E0,0E0,0E0,0E0,0E0,0E0,0E0,0E0,0E0,0E0,0E0,0E0,0E0,0E0,0E0],"parents":[2147483647,0,0,1,1,2,2,3,3,4,4,5,5,6,6,7,7,8,8,9,9,10,10,11,11,12,12,13,13,14,14,15,15,16,16,17,17,18,18,19,19,20,20,21,21,23,23,24,24,25,25,26,26,27,27,29,29,30,30,31,31,32,32,33,33,34,34,35,35,36,36,37,37,38,38,39,39,40,40,41,41,42,42,43,43,45,45,46,46,47,47,48,48,49,49,50,50,51,51,52,52,53,53,54,54,56,56,58,58,59,59,60,60,61,61,62,62,63,63,64,64,65,65,66,66,67,67,68,68,69,69,71,71,72,72,73,73,74,74,76,76,78,78,81,81,82,82,85,85,86,86,87,87,88,88,89,89,90,90,91,91,92,92,93,93,94,94,95,95,96,96,97,97,98,98,99,99,100,100,101,101,103,103,105,105,106,106,108,108],"right_children":[2,4,6,8,10,12,14,16,18,20,22,24,26,28,30,32,34,36,38,40,42,44,-1,46,48,50,52,54,-1,56,58,60,62,64,66,68,70,72,74,76,78,80,82,84,-1,86,88,90,92,94,96,98,100,102,104,-1,106,-1,108,110,112,114,116,118,120,122,124,126,128,130,-1,132,134,136,138,-1,140,-1,142,-1,-1,144,146,-1,-1,148,150,152,154,156,158,160,162,164,166,168,170,172,174,176,178,180,-1,182,-1,184,186,-1,188,-1,-1,-1,-1,-1,-1,-1,-1,-1,-1,-1,-1,-1,-1,-1,-1,-1,-1,-1,-1,-1,-1,-1,-1,-1,-1,-1,-1,-1,-1,-1,-1,-1,-1,-1,-1,-1,-1,-1,-1,-1,-1,-1,-1,-1,-1,-1,-1,-1,-1,-1,-1,-1,-1,-1,-1,-1,-1,-1,-1,-1,-1,-1,-1,-1,-1,-1,-1,-1,-1,-1,-1,-1,-1,-1,-1,-1,-1,-1,-1],"split_conditions":[2.3053148E-1,7.562721E1,4.530858E0,6.155428E1,1.0726774E2,8.5520096E1,6.0190804E1,4.222521E0,6.653683E1,8.072738E1,9.1990105E1,4.2431674E0,8.145848E1,2.6518658E-1,1.0296466E2,3.2550816E1,3.1956633E1,-1.9609338E-1,1.07333534E2,4.075639E0,1.0715894E2,3.903697E1,-7.328432E-3,1.03214874E2,1.0542369E2,7.858332E1,1.0952847E2,9.0393555E1,-1.1728063E-2,3.6930756E1,6.0283894E1,3.9909775E0,5.9293236E1,4.501714E0,4.4538636E0,1.0571132E2,1.0862806E2,7.130699E1,4.3087015E0,1.0421263E2,9.98867E1,7.5241066E1,2.1937984E1,-5.4517895E-1,-1.6104177E-3,4.006137E0,4.044543E0,6.433246E1,1.0622227E2,2.8867102E-1,8.555691E1,3.8777764E0,8.875384E1,3.9146408E1,2.42865E-1,3.0600304E-2,9.5213165E1,1.6861005E-2,3.0225153E1,9.009185E1,-1.2531465E-1,3.516602E1,5.9736565E1,-6.2984556E-1,3.0448936E1,1.0540088E2,8.752071E1,3.543761E1,3.1822853E1,1.06031395E2,-6.7401365E-3,1.0514062E2,3.8845833E1,4.222521E0,4.059804E1,3.2378423E-3,1.0624285E2,3.6783777E-3,4.4118266E0,-6.8803937E-3,-1.4856786E-3,1.0952847E2,8.6501434E1,1.3640791E-2,2.5927648E-2,8.811981E1,4.4093807E1,7.730994E1,3.3461533E1,9.7221565E1,5.9573273E1,9.1990105E1,2.3994662E-1,8.884463E1,1.7331974E1,7.8360306E1,1.8446117E1,8.66245E1,2.607158E-1,3.866446E0,2.5136462E-1,-4.3346566E-1,-3.87225E-3,4.5580735E0,2.9023444E-2,1.08434586E2,6.49129E1,9.461158E-3,6.0605198E1,-1.3349334E-3,-1.3283193E-2,1.8508283E-2,5.410549E-3,1.6776342E-3,2.4117574E-2,-8.568784E-3,2.8927603E-3,-6.049296E-4,1.15542775E-2,3.6681034E-3,-6.86986E-3,1.6878825E-2,-6.653545E-4,3.186913E-3,2.7175898E-2,-4.6680886E-3,8.542286E-3,8.276223E-3,-7.426528E-3,4.806E-3,1.3018938E-2,9.087818E-3,-5.532558E-3,-1.4636854E-2,-3.3510309E-3,8.187392E-3,1.695593E-2,1.4297583E-3,-4.757078E-3,-1.1402621E-2,-4.524509E-4,-3.3228179E-3,-3.507495E-4,6.437032E-3,1.7737106E-3,6.7761936E-3,1.3357832E-2,-2.8720964E-3,1.977755E-2,9.590865E-3,-1.0839056E-2,-7.516929E-3,-2.0454635E-3,6.0768607E-3,-4.80825E-3,1.575177E-2,-1.759167E-2,-1.0671765E-2,-2.5664747E-3,-6.4149447E-4,4.599715E-3,2.6448546E-3,-6.316868E-3,-7.934785E-3,-1.8490002E-3,-1.050963E-3,3.3826907E-3,2.35478E-3,2.884519E-2,-2.0410973E-3,2.2604715E-3,1.2335463E-2,2.9276907E-3,-5.702163E-3,8.273339E-4,3.6302816E-2,-3.901551E-3,2.8914392E-3,1.4446475E-2,4.1138195E-2,1.299652E-2,2.6778348E-3,8.805259E-3,-1.117337E-2,1.8700467E-3,1.777026E-2,8.153186E-3,-1.03010135E-2,2.0060355E-4],"split_indices":[10,7,5,7,2,9,7,5,7,9,0,5,0,10,2,1,1,9,6,5,1,1,0,6,6,7,1,0,0,1,7,5,7,5,5,6,1,7,5,6,0,0,2,9,0,5,5,1,1,10,7,5,7,1,10,0,0,0,1,0,9,1,7,9,1,2,0,1,1,6,0,6,1,5,1,0,2,0,5,0,0,1,0,0,0,7,1,9,1,0,7,0,10,9,2,0,2,7,10,5,10,9,0,5,0,6,7,0,7,0,0,0,0,0,0,0,0,0,0,0,0,0,0,0,0,0,0,0,0,0,0,0,0,0,0,0,0,0,0,0,0,0,0,0,0,0,0,0,0,0,0,0,0,0,0,0,0,0,0,0,0,0,0,0,0,0,0,0,0,0,0,0,0,0,0,0,0,0,0,0,0,0,0,0,0,0,0,0,0],"split_type":[0,0,0,0,0,0,0,0,0,0,0,0,0,0,0,0,0,0,0,0,0,0,0,0,0,0,0,0,0,0,0,0,0,0,0,0,0,0,0,0,0,0,0,0,0,0,0,0,0,0,0,0,0,0,0,0,0,0,0,0,0,0,0,0,0,0,0,0,0,0,0,0,0,0,0,0,0,0,0,0,0,0,0,0,0,0,0,0,0,0,0,0,0,0,0,0,0,0,0,0,0,0,0,0,0,0,0,0,0,0,0,0,0,0,0,0,0,0,0,0,0,0,0,0,0,0,0,0,0,0,0,0,0,0,0,0,0,0,0,0,0,0,0,0,0,0,0,0,0,0,0,0,0,0,0,0,0,0,0,0,0,0,0,0,0,0,0,0,0,0,0,0,0,0,0,0,0,0,0,0,0,0,0,0,0,0,0,0,0],"sum_hessian":[8.476E3,1.126E3,7.35E3,7.08E2,4.18E2,7.214E3,1.36E2,3.75E2,3.33E2,6.3E1,3.55E2,6.447E3,7.67E2,7.9E1,5.7E1,1.13E2,2.62E2,2.11E2,1.22E2,3.4E1,2.9E1,3.53E2,2E0,4.83E3,1.617E3,4.4E2,3.27E2,7.8E1,1E0,3.3E1,2.4E1,4.5E1,6.8E1,3.3E1,2.29E2,1.82E2,2.9E1,2.5E1,9.7E1,2.3E1,1.1E1,2E0,2.7E1,3.52E2,1E0,4.14E2,4.416E3,2.63E2,1.354E3,2.32E2,2.08E2,2.32E2,9.5E1,4.6E1,3.2E1,4E0,2.9E1,1E0,2.3E1,4E0,4.1E1,1.6E1,5.2E1,1.8E1,1.5E1,1.4E2,8.9E1,3.7E1,1.45E2,2.5E1,4E0,7E0,1.8E1,8.9E1,8E0,2E0,2.1E1,6E0,5E0,1E0,1E0,1.3E1,1.4E1,6E0,3.46E2,2.35E2,1.79E2,3.04E3,1.376E3,2.31E2,3.2E1,1.073E3,2.81E2,1.71E2,6.1E1,5.9E1,1.49E2,1.96E2,3.6E1,7E1,2.5E1,4.5E1,1E0,4E0,2.8E1,1.1E1,1.8E1,2E0,2.1E1,2E0,2E0,2.5E1,1.6E1,9E0,7E0,1.7E1,3.5E1,2E0,1.6E1,1E1,5E0,1.31E2,9E0,1E0,8.8E1,2E1,1.7E1,2E0,1.43E2,7E0,1.8E1,4E0,3E0,1.6E1,2E0,4.4E1,4.5E1,1E0,7E0,1.9E1,2E0,2E0,3E0,1.2E1,1E0,5E0,9E0,2.27E2,8E0,1.57E2,2.2E1,2.563E3,4.77E2,1.75E2,1.201E3,2.27E2,4E0,1.2E1,2E1,7.62E2,3.11E2,2.4E1,2.57E2,1.2E2,5.1E1,2.4E1,3.7E1,4.6E1,1.3E1,5.1E1,9.8E1,1.26E2,7E1,2.4E1,1.2E1,6.5E1,5E0,1.9E1,6E0,4.2E1,3E0,3E0,1E0,6E0,5E0,9E0,9E0,5E0,1.6E1],"tree_param":{"num_deleted":"0","num_feature":"11","num_nodes":"189","size_leaf_vector":"1"}},{"base_weights":[3.9873566E-4,2.0256275E-1,-3.8193945E-2,5.6361858E-2,3.7065086E-1,-7.7553116E-2,1.2364968E-1,-1.3974331E-1,1.0621935E-1,2.7111918E-2,4.5614257E-1,2.8457852E-2,-9.8375924E-2,4.3793505E-1,3.6618695E-2,1.1605816E-1,-1.4765488E-1,-1.4743488E-1,1.3517152E-1,-1.03526846E-1,1.1906848E-1,-1.4636502E-1,4.6858498E-1,-3.5099003E-2,2.0049982E-1,1.0488361E-2,-1.2148019E-1,-1.0189997E-1,4.625709E-1,1.8189156E-1,6.205877E-3,-9.128662E-3,3.2764595E-2,-2.3127335E-1,-1.1095635E-1,-7.5326636E-3,-3.2356994E-3,2.7053574E-1,9.409132E-2,-1.969151E-1,-5.7820704E-2,-1.0892138E-1,1.3344708E-1,-7.147834E-4,-7.90712E-3,4.4287714E-1,7.8477186E-1,-9.136532E-3,-2.1201202E-1,2.2892968E-1,-2.093126E-1,-8.1843786E-2,5.1172536E-2,-1.5151818E-1,-8.290379E-2,1.0318677E-1,-1.9425334E-1,3.265379E-1,5.157952E-1,2.2687317E-1,-9.640087E-2,-3.1743307E-2,6.865963E-2,-2.4259278E-1,-6.026072E-2,-7.746083E-2,-1.16287366E-1,8.509872E-2,3.4807262E-1,2.515144E-1,4.9814098E-2,-1.1402371E-2,-3.8723215E-2,6.7466825E-2,-1.1342184E-1,-6.806242E-3,-2.27054E-3,2.3099627E-1,9.066317E-2,4.8906127E-1,2.3580612E-1,2.6707524E-1,9.0052366E-1,-8.652348E-2,8.29168E-2,-5.411493E-3,-2.414561E-1,3.642451E-1,1.8229364E-1,-1.6906643E-3,-2.3045829E-1,-2.4363737E-1,-4.6351578E-2,-6.7462005E-2,8.8464566E-2,-2.0219097E-1,-1.2754211E-1,-5.526304E-2,-1.9749777E-1,5.7934294E-3,1.3114884E-3,-8.7818754E-4,-2.3623027E-1,1.4326698E-1,3.4662017E-1,6.1975205E-1,4.1943505E-1,2.5364992E-1,-1.3120519E-1,-1.14484474E-1,9.344317E-3,-4.3255564E-2,1.6063994E-1,1.9321012E-1,2.0671904E-2,-1.2843482E-2,-8.243793E-3,-4.3027396E-3,4.2803734E-4,-4.3364936E-3,-2.647693E-4,-1.9301653E-3,-5.931506E-3,1.1101488E-2,-6.5267733E-3,2.966234E-2,1.4568642E-2,-5.154776E-3,1.3935938E-2,1.3893467E-2,3.3796506E-4,-2.5253564E-3,-8.428693E-5,-9.445133E-3,8.695625E-3,-1.22211315E-2,-3.5296E-3,2.5482858E-2,6.772458E-3,2.9787092E-4,5.9742345E-3,2.5048861E-2,5.8897045E-3,1.3288702E-2,-4.480147E-3,3.5780665E-2,-8.531709E-5,4.731425E-2,-9.519817E-3,4.123437E-3,-6.5605254E-3,1.8898398E-3,1.7749079E-2,-7.6742056E-3,8.412091E-3,-1.095263E-2,-1.7227702E-2,2.1380363E-2,3.7581304E-3,4.4957446E-3,1.2557452E-2,-5.249919E-3,-1.265367E-2,1.8271416E-3,-1.2860167E-2,-3.1720889E-3,3.4110602E-3,-9.536686E-3,4.913448E-4,1.1706713E-2,2.3803515E-3,-6.8118903E-3,-1.1949963E-2,-7.971833E-3,-4.3789535E-3,-5.702687E-3,-1.3771148E-3,-1.4805748E-2,-8.835839E-3,-7.018453E-3,-1.4849961E-2,1.8511334E-3,1.4668888E-2,1.0385933E-2,1.8894179E-2,2.8529117E-2,5.185624E-2,2.1745017E-2,-1.3856383E-2,7.3687644E-3,1.6463293E-2,-1.3416955E-2,2.5325955E-3,-6.9345008E-3,-5.342161E-4,-4.5629996E-3,8.440926E-4,2.4407345E-3,1.22451605E-2,3.6040656E-4,1.2626367E-2,-4.30951E-3,3.5567598E-3],"categories":[],"categories_nodes":[],"categories_segments":[],"categories_sizes":[],"default_left":[0,0,0,0,0,0,0,0,0,0,0,0,0,0,0,0,0,0,0,0,0,0,0,0,0,0,0,0,0,0,0,0,0,0,0,0,0,0,0,0,0,0,0,0,0,0,0,0,0,0,0,0,0,0,0,0,0,0,0,0,0,0,0,0,0,0,0,0,0,0,0,0,0,0,0,0,0,0,0,0,0,0,0,0,0,0,0,0,0,0,0,0,0,0,0,0,0,0,0,0,0,0,0,0,0,0,0,0,0,0,0,0,0,0,0,0,0,0,0,0,0,0,0,0,0,0,0,0,0,0,0,0,0,0,0,0,0,0,0,0,0,0,0,0,0,0,0,0,0,0,0,0,0,0,0,0,0,0,0,0,0,0,0,0,0,0,0,0,0,0,0,0,0,0,0,0,0,0,0,0,0,0,0,0,0,0,0,0,0,0,0,0,0,0,0,0,0,0,0,0,0,0,0],"id":8,"left_children":[1,3,5,7,9,11,13,15,17,19,21,23,25,27,29,31,33,35,37,39,41,43,45,47,49,51,53,55,57,59,61,-1,-1,63,65,-1,-1,67,69,71,73,75,77,-1,-1,79,81,83,85,87,89,91,93,95,97,99,101,103,105,107,109,111,113,115,117,119,121,123,125,127,129,-1,131,133,135,-1,-1,137,139,141,143,145,147,149,151,153,155,157,159,-1,161,163,165,167,169,171,173,175,177,-1,-1,-1,179,181,183,185,187,189,191,193,-1,195,197,199,201,-1,-1,-1,-1,-1,-1,-1,-1,-1,-1,-1,-1,-1,-1,-1,-1,-1,-1,-1,-1,-1,-1,-1,-1,-1,-1,-1,-1,-1,-1,-1,-1,-1,-1,-1,-1,-1,-1,-1,-1,-1,-1,-1,-1,-1,-1,-1,-1,-1,-1,-1,-1,-1,-1,-1,-1,-1,-1,-1,-1,-1,-1,-1,-1,-1,-1,-1,-1,-1,-1,-1,-1,-1,-1,-1,-1,-1,-1,-1,-1,-1,-1,-1,-1,-1,-1,-1,-1],"loss_changes":[6.614573E1,3.3376038E1,4.535784E1,7.1327267E0,1.8549294E1,1.2644844E1,3.8086086E1,3.166573E-1,4.2867E0,1.5379896E0,3.8619003E0,1.02963505E1,1.2041679E1,4.063526E0,4.8234987E0,9.2479926E-1,4.1622806E-1,6.224394E-3,2.8772774E0,2.1484035E-1,2.603984E-1,1.4848977E-2,3.6841736E0,3.158115E0,3.0072508E0,3.1558557E0,4.5633736E0,2.852107E-1,1.9240036E0,2.3877811E0,2.144722E0,0E0,0E0,6.861901E-2,9.205937E-3,0E0,0E0,1.7101431E0,2.7895145E0,7.489222E-2,2.6539898E-1,2.4569966E-3,2.753781E-1,0E0,0E0,4.2933884E0,1.9167652E0,4.288534E0,5.3401184E-1,1.4355183E0,5.529535E-2,1.4645069E0,2.5852318E0,2.670147E0,5.471966E0,1.8405691E-3,7.001978E-2,2.5950336E-1,1.8036194E0,1.5961533E0,1.5971261E-1,1.2538614E0,2.040104E0,2.0303726E-3,7.837438E-3,1.0912098E-2,1.107192E-2,1.1214823E0,1.0087576E0,8.776641E-1,3.0910666E0,0E0,1.6606436E-3,3.6032557E-1,1.28625E-1,0E0,0E0,4.9009752E-1,1.2379691E-1,1.6044159E0,8.624716E-1,9.656913E-1,1.6279049E0,2.480246E0,3.3623633E0,3.3438203E-1,1.0237551E-1,1.0668726E0,1.1159964E0,0E0,1.5987039E-2,1.842413E-1,4.1943923E-1,1.3357292E0,2.6314104E0,1.6934795E0,1.9094124E0,2.2719507E0,6.362572E-1,0E0,0E0,0E0,4.9135983E-3,1.4862253E-1,2.471962E-1,1.3988762E0,1.3055058E0,1.1729555E0,3.1285715E-1,6.3844204E-2,0E0,1.5373513E0,2.8957343E-1,1.0463257E0,1.3434992E0,0E0,0E0,0E0,0E0,0E0,0E0,0E0,0E0,0E0,0E0,0E0,0E0,0E0,0E0,0E0,0E0,0E0,0E0,0E0,0E0,0E0,0E0,0E0,0E0,0E0,0E0,0E0,0E0,0E0,0E0,0E0,0E0,0E0,0E0,0E0,0E0,0E0,0E0,0E0,0E0,0E0,0E0,0E0,0E0,0E0,0E0,0E0,0E0,0E0,0E0,0E0,0E0,0E0,0E0,0E0,0E0,0E0,0E0,0E0,0E0,0E0,0E0,0E0,0E0,0E0,0E0,0E0,0E0,0E0,0E0,0E0,0E0,0E0,0E0,0E0,0E0,0E0,0E0,0E0,0E0,0E0,0E0,0E0,0E0,0E0,0E0,0E0,0E0],"parents":[2147483647,0,0,1,1,2,2,3,3,4,4,5,5,6,6,7,7,8,8,9,9,10,10,11,11,12,12,13,13,14,14,15,15,16,16,17,17,18,18,19,19,20,20,21,21,22,22,23,23,24,24,25,25,26,26,27,27,28,28,29,29,30,30,33,33,34,34,37,37,38,38,39,39,40,40,41,41,42,42,45,45,46,46,47,47,48,48,49,49,50,50,51,51,52,52,53,53,54,54,55,55,56,56,57,57,58,58,59,59,60,60,61,61,62,62,63,63,64,64,65,65,66,66,67,67,68,68,69,69,70,70,72,72,73,73,74,74,77,77,78,78,79,79,80,80,81,81,82,82,83,83,84,84,85,85,86,86,87,87,88,88,90,90,91,91,92,92,93,93,94,94,95,95,96,96,97,97,98,98,102,102,103,103,104,104,105,105,106,106,107,107,108,108,109,109,111,111,112,112,113,113,114,114],"right_children":[2,4,6,8,10,12,14,16,18,20,22,24,26,28,30,32,34,36,38,40,42,44,46,48,50,52,54,56,58,60,62,-1,-1,64,66,-1,-1,68,70,72,74,76,78,-1,-1,80,82,84,86,88,90,92,94,96,98,100,102,104,106,108,110,112,114,116,118,120,122,124,126,128,130,-1,132,134,136,-1,-1,138,140,142,144,146,148,150,152,154,156,158,160,-1,162,164,166,168,170,172,174,176,178,-1,-1,-1,180,182,184,186,188,190,192,194,-1,196,198,200,202,-1,-1,-1,-1,-1,-1,-1,-1,-1,-1,-1,-1,-1,-1,-1,-1,-1,-1,-1,-1,-1,-1,-1,-1,-1,-1,-1,-1,-1,-1,-1,-1,-1,-1,-1,-1,-1,-1,-1,-1,-1,-1,-1,-1,-1,-1,-1,-1,-1,-1,-1,-1,-1,-1,-1,-1,-1,-1,-1,-1,-1,-1,-1,-1,-1,-1,-1,-1,-1,-1,-1,-1,-1,-1,-1,-1,-1,-1,-1,-1,-1,-1,-1,-1,-1,-1,-1,-1],"split_conditions":[9.821077E-1,7.543088E1,4.3143897E0,8.352689E1,1.0935302E2,1.0448768E2,1.04420616E2,3.8499346E0,1.9301237E1,8.369327E1,8.1640114E1,4.1065683E0,2.8881624E1,1.0120018E2,1.06520294E2,7.667801E1,3.999026E0,4.322048E0,1.0421263E2,9.492826E-1,8.111822E1,3.849821E0,8.942301E1,1.0748122E-1,2.2998112E1,6.529893E1,4.0344796E0,2.319397E1,4.4196496E0,-1.4026254E-1,1.1145041E2,-9.128662E-3,3.2764595E-2,8.3257706E1,7.8148506E1,-7.5326636E-3,-3.2356994E-3,4.1907067E0,1.977273E1,3.900807E0,2.0063097E1,8.048909E1,8.319858E1,-7.147834E-4,-7.90712E-3,9.492826E-1,2.0481989E1,2.0550047E1,2.610914E1,1.0330157E2,4.1339564E0,1.9899586E1,1.9434175E1,1.06520294E2,6.977204E1,9.671547E1,3.682481E1,8.075649E1,5.9841217E1,9.650557E1,1.0102744E2,4.5103135E0,6.4720406E1,1.0808486E2,8.3360374E1,1.9472124E1,3.9993167E0,5.9500927E1,-6.911908E-1,1.0755073E2,3.8942258E0,-1.1402371E-2,2.8881624E1,7.733156E1,1.05461365E2,-6.806242E-3,-2.27054E-3,8.393908E1,2.020257E1,8.837463E1,8.762352E1,8.238678E1,2.1516762E1,7.087567E1,8.343104E1,7.323892E1,1.2890626E0,-2.2875392E-1,4.204509E0,-1.6906643E-3,2.3695906E1,1.8743685E1,1.2517993E0,1.08434586E2,1.0080769E0,7.3107185E1,2.0962029E1,2.0701893E1,3.2596073E1,5.7934294E-3,1.3114884E-3,-8.7818754E-4,9.542536E1,5.9628162E1,1.0163442E0,1.2209021E0,1.2486249E0,4.384791E0,4.5412893E0,2.4397888E1,9.344317E-3,1.1128814E0,2.3992355E1,8.7839424E1,1.0672047E0,-1.2843482E-2,-8.243793E-3,-4.3027396E-3,4.2803734E-4,-4.3364936E-3,-2.647693E-4,-1.9301653E-3,-5.931506E-3,1.1101488E-2,-6.5267733E-3,2.966234E-2,1.4568642E-2,-5.154776E-3,1.3935938E-2,1.3893467E-2,3.3796506E-4,-2.5253564E-3,-8.428693E-5,-9.445133E-3,8.695625E-3,-1.22211315E-2,-3.5296E-3,2.5482858E-2,6.772458E-3,2.9787092E-4,5.9742345E-3,2.5048861E-2,5.8897045E-3,1.3288702E-2,-4.480147E-3,3.5780665E-2,-8.531709E-5,4.731425E-2,-9.519817E-3,4.123437E-3,-6.5605254E-3,1.8898398E-3,1.7749079E-2,-7.6742056E-3,8.412091E-3,-1.095263E-2,-1.7227702E-2,2.1380363E-2,3.7581304E-3,4.4957446E-3,1.2557452E-2,-5.249919E-3,-1.265367E-2,1.8271416E-3,-1.2860167E-2,-3.1720889E-3,3.4110602E-3,-9.536686E-3,4.913448E-4,1.1706713E-2,2.3803515E-3,-6.8118903E-3,-1.1949963E-2,-7.971833E-3,-4.3789535E-3,-5.702687E-3,-1.3771148E-3,-1.4805748E-2,-8.835839E-3,-7.018453E-3,-1.4849961E-2,1.8511334E-3,1.4668888E-2,1.0385933E-2,1.8894179E-2,2.8529117E-2,5.185624E-2,2.1745017E-2,-1.3856383E-2,7.3687644E-3,1.6463293E-2,-1.3416955E-2,2.5325955E-3,-6.9345008E-3,-5.342161E-4,-4.5629996E-3,8.440926E-4,2.4407345E-3,1.22451605E-2,3.6040656E-4,1.2626367E-2,-4.30951E-3,3.5567598E-3],"split_indices":[8,7,5,0,6,6,6,5,3,9,0,5,2,2,6,0,5,5,6,8,0,5,9,9,3,7,5,3,5,9,6,0,0,0,0,0,0,5,3,5,3,0,7,0,0,8,3,3,2,2,5,3,3,6,9,0,2,0,7,0,0,5,7,6,0,3,5,7,9,2,5,0,2,0,6,0,0,0,2,7,0,0,3,7,7,0,8,9,5,0,3,2,8,6,8,7,3,3,2,0,0,0,0,7,8,8,8,5,5,3,0,8,3,0,8,0,0,0,0,0,0,0,0,0,0,0,0,0,0,0,0,0,0,0,0,0,0,0,0,0,0,0,0,0,0,0,0,0,0,0,0,0,0,0,0,0,0,0,0,0,0,0,0,0,0,0,0,0,0,0,0,0,0,0,0,0,0,0,0,0,0,0,0,0,0,0,0,0,0,0,0,0,0,0,0,0,0,0,0,0,0,0,0],"split_type":[0,0,0,0,0,0,0,0,0,0,0,0,0,0,0,0,0,0,0,0,0,0,0,0,0,0,0,0,0,0,0,0,0,0,0,0,0,0,0,0,0,0,0,0,0,0,0,0,0,0,0,0,0,0,0,0,0,0,0,0,0,0,0,0,0,0,0,0,0,0,0,0,0,0,0,0,0,0,0,0,0,0,0,0,0,0,0,0,0,0,0,0,0,0,0,0,0,0,0,0,0,0,0,0,0,0,0,0,0,0,0,0,0,0,0,0,0,0,0,0,0,0,0,0,0,0,0,0,0,0,0,0,0,0,0,0,0,0,0,0,0,0,0,0,0,0,0,0,0,0,0,0,0,0,0,0,0,0,0,0,0,0,0,0,0,0,0,0,0,0,0,0,0,0,0,0,0,0,0,0,0,0,0,0,0,0,0,0,0,0,0,0,0,0,0,0,0,0,0,0,0,0,0],"sum_hessian":[8.476E3,1.358E3,7.118E3,7.27E2,6.31E2,5.726E3,1.392E3,1.47E2,5.8E2,1.26E2,5.05E2,9.4E2,4.786E3,3.01E2,1.091E3,4E0,1.43E2,5.9E1,5.21E2,5.2E1,7.4E1,1E1,4.95E2,6.87E2,2.53E2,8.38E2,3.948E3,1.3E1,2.88E2,1.88E2,9.03E2,3E0,1E0,4.2E1,1.01E2,5.6E1,3E0,1.2E2,4.01E2,1.6E1,3.6E1,4E0,7E1,1E0,9E0,4.6E2,3.5E1,6E2,8.7E1,2.37E2,1.6E1,2.56E2,5.82E2,2.218E3,1.73E3,4E0,9E0,8.3E1,2.05E2,1.62E2,2.6E1,5.62E2,3.41E2,3.9E1,3E0,1.6E1,8.5E1,3.6E1,8.4E1,8.7E1,